tree
version=v4
num_class=1
num_tree_per_iteration=1
label_index=0
max_feature_idx=7
objective=binary sigmoid:1
feature_names=Column_0 Column_1 Column_2 Column_3 Column_4 Column_5 Column_6 Column_7
feature_infos=[-1.4280993407807978:1.4263153316105528] [-1.7339554932264436:1.7055709296345603] [-1.7154940759849842:1.7519407648841554] [-1.7842797651146276:1.8078520127184698] [-1.8233955398118724:1.673618561650825] [-0.16418781318183334:6.0905860223165798] [-1.6487144450565459:1.6820218075829407] [-1.6777906011108263:1.7890878523673353]
tree_sizes=752 940 846 844 644 843 943 844 840 948 652 952 647 953 958 956 648 850 649 851 858 645 956 652 653 951 645 651 551 849 648 652 960 651 857 854 759 651 547 650 553 653 846 964 853 854 962 858 967 857 951 965 659 856 760 858 961 851 761 659 961 857 962 861 855 961 859 860 971 857 760 661 865 851 852 956 853 660 849 959 766 866 760 963 859 853 858 852 859 970 961 855 855 854 661 955 962 858 853 858

Tree=0
num_leaves=6
num_cat=0
split_feature=1 7 4 2 2
split_gain=691.169 501.089 1217.44 241.41 4.44089e-16
threshold=1.4851724717236141 -0.78058336315039745 -0.45578593439159937 -0.58298427007159936 -0.13154268764317001
decision_type=2 2 2 2 2
left_child=1 2 -1 -3 -2
right_child=4 3 -4 -5 -6
leaf_value=-1.3698178324600079 -3.1033472683649079 -1.2321196484423163 -3.1033472683649079 -1.5442497407380258 -3.1033472683649079
leaf_weight=11.537156242877247 1.4478000402450564 45.424724869430065 6.2436376735568038 54.518718872219324 1.266825035214423
leaf_count=59 32 171 138 372 28
internal_value=-2.99836 -1.48941 -1.97854 -1.40239 -3.10335
internal_weight=0 117.724 17.7808 99.9434 2.71463
internal_count=800 740 197 543 60
is_linear=0
shrinkage=1


Tree=1
num_leaves=8
num_cat=0
split_feature=1 3 1 2 4 3 1
split_gain=63.5989 209.094 56.358 68.4423 35.9312 27.0332 0.0182783
threshold=0.93816059415949415 0.54276668079531543 0.59453139415859058 0.18815262368535787 -1.7930058240103495 -0.3971042287583248 1.4211461155866643
decision_type=2 2 2 2 2 2 2
left_child=2 6 3 -1 -3 -4 -2
right_child=1 4 5 -5 -6 -7 -8
leaf_value=0.29386865259096523 -0.12357631778228806 0.56844556712479999 0.33545675647611062 0.39511892666506782 0.31279618660066055 0.46390735480603751 -0.11428544051758958
leaf_weight=142.30759369581938 9.1004645973443967 7.2485537528991726 21.581616520881653 125.76331669092178 22.760829381644726 68.03355997800827 2.7595939934253684
leaf_count=284 67 1 32 252 65 55 44
internal_value=0 0.234059 0.36432 0.341369 0.374546 0.432973 -0.121415
internal_weight=0 41.8694 357.686 268.071 30.0094 89.6152 11.8601
internal_count=800 177 623 536 66 87 111
is_linear=0
shrinkage=0.1


Tree=2
num_leaves=7
num_cat=0
split_feature=7 3 7 3 3 4
split_gain=56.0279 93.4901 35.275 67.5586 38.1859 0.188811
threshold=-1.2561903067682558 1.4184541859561628 -0.69521801429591012 0.70489219437798278 0.16712544197741278 -0.44867553025529172
decision_type=2 2 2 2 2 2
left_child=1 5 4 -4 -2 -1
right_child=2 -3 3 -5 -6 -7
leaf_value=-0.13520121709429092 0.18108971736682097 0.29220797054600028 0.26820973930011172 0.14684948372793979 0.35230710238013807 -0.10599777327213181
leaf_weight=6.6342616826295853 15.906567733734844 11.606609370559452 321.5017249584198 53.503469794988632 71.925944659858942 3.3227159306406993
leaf_count=36 62 15 414 148 61 64
internal_value=0 0.0993519 0.264255 0.250895 0.321299 -0.125456
internal_weight=0 21.5636 462.838 375.005 87.8325 9.95698
internal_count=800 115 685 562 123 100
is_linear=0
shrinkage=0.1


Tree=3
num_leaves=7
num_cat=0
split_feature=7 3 2 3 2 4
split_gain=33.5416 68.1766 27.5051 119.203 33.6761 0.13103
threshold=-1.2561903067682558 1.4184541859561628 1.2498116387684888 0.51899245159935792 0.18815262368535787 -0.44867553025529172
decision_type=2 2 2 2 2 2
left_child=1 5 4 -4 -2 -1
right_child=2 -3 3 -5 -6 -7
leaf_value=-0.13079263364626015 0.19597555286953083 0.2330284876974929 -0.13821694402214216 0.24815106120020031 0.25006984973334884 -0.10539594998142399
leaf_weight=6.1947022825479507 289.55353220552206 13.008128449320791 11.573174163699148 25.756144125014544 190.99885604158044 3.0228086523711699
leaf_count=36 383 15 65 32 205 64
internal_value=0 0.0855971 0.211053 0.128366 0.217476 -0.122464
internal_weight=0 22.2256 517.882 37.3293 480.552 9.21751
internal_count=800 115 685 97 588 100
is_linear=0
shrinkage=0.1


Tree=4
num_leaves=5
num_cat=0
split_feature=3 3 0 3
split_gain=23.4896 47.6772 169.371 37.6252
threshold=1.6417109053161527 0.70489219437798278 -0.35769383863404119 0.51899245159935792
decision_type=2 2 2 2
left_child=1 3 -3 -1
right_child=-2 2 -4 -5
leaf_value=0.16334392686542409 0.23782385804517159 0.18302100484208711 -0.14537414566336948 0.23257456840926338
leaf_weight=344.97699646651745 50.368879966437817 58.857012428343296 21.421262960880995 101.62849956378341
leaf_count=524 27 76 119 54
internal_value=0 0.166344 0.0953928 0.179098
internal_weight=0 526.884 80.2783 446.605
internal_count=800 773 195 578
is_linear=0
shrinkage=0.1


Tree=5
num_leaves=7
num_cat=0
split_feature=2 7 1 4 4 7
split_gain=23.1678 92.3304 19.8987 65.778 22.0599 0.0335937
threshold=1.2498116387684888 0.63055811791357763 1.2843034820829848 1.5379424164783682 1.3885077924904945 -0.72309241392186518
decision_type=2 2 2 2 2 2
left_child=2 5 4 -4 -1 -2
right_child=1 -3 3 -5 -6 -7
leaf_value=0.16241483822875852 -0.13062090766411788 0.17677423439297024 -0.12883744840349723 0.21326933832328124 0.061014183997133598 -0.14287801320822188
leaf_weight=512.71399645134807 2.8406830430030814 29.465456821024418 10.032961670309305 12.778604675084352 22.391635339707136 10.505447916686533
leaf_count=545 26 29 90 6 51 53
internal_value=0 0.0779388 0.154272 0.0628043 0.158172 -0.140269
internal_weight=0 42.8116 557.917 22.8116 535.106 13.3461
internal_count=800 108 692 96 596 79
is_linear=0
shrinkage=0.1


Tree=6
num_leaves=8
num_cat=0
split_feature=1 3 1 1 3 6 1
split_gain=19.1946 92.6149 20.5923 45.4445 13.0507 6.75119 0.109863
threshold=0.93816059415949415 0.54276668079531543 0.59453139415859058 -0.048412430637277695 0.60749848800552941 1.1751706387030192 1.4211461155866643
decision_type=2 2 2 2 2 2 2
left_child=2 6 3 -1 -3 -4 -2
right_child=1 4 5 -5 -6 -7 -8
leaf_value=0.14021645697727389 -0.14062121003603609 0.19639223918656945 0.15301367367632346 0.050622816875123614 0.088328771638969267 0.19843440500678022 -0.12037189793011778
leaf_weight=345.10298692807555 11.74747892282903 25.511370904743671 88.140291411429644 67.724649902433157 19.888134334236383 52.04898689687252 3.4710164330899707
leaf_count=385 67 6 71 151 60 16 44
internal_value=0 0.0774881 0.136763 0.125519 0.149053 0.169877 -0.136003
internal_weight=0 60.618 553.017 412.828 45.3995 140.189 15.2185
internal_count=800 177 623 536 66 87 111
is_linear=0
shrinkage=0.1


Tree=7
num_leaves=7
num_cat=0
split_feature=2 2 7 7 7 3
split_gain=18.8038 49.4043 89.8285 44.4507 18.536 12.817
threshold=-0.83053782027631684 0.18815262368535787 0.67759616728237693 -1.2561903067682558 -1.3206498559032769 0.66247279800350445
decision_type=2 2 2 2 2 2
left_child=4 2 -2 -3 -1 -6
right_child=1 3 -4 -5 5 -7
leaf_value=-0.1333207088145569 0.08445667487273989 -0.13203817776461821 -0.16877702685156387 0.13171126959945509 0.15158790567846422 0.085751423316723863
leaf_weight=2.4753198437392703 91.386421671137214 6.5453180335462084 16.543680265545845 269.14601073041558 198.41618226654828 34.748709879815578
leaf_count=24 167 54 75 302 129 49
internal_value=0 0.102996 0.0456407 0.125449 0.138886 0.141776
internal_weight=0 383.621 107.93 275.691 235.64 233.165
internal_count=800 598 242 356 202 178
is_linear=0
shrinkage=0.1


Tree=8
num_leaves=7
num_cat=0
split_feature=4 1 1 0 1 1
split_gain=18.0382 60.4777 25.3345 62.0182 18.234 0.0590101
threshold=1.4383654842874518 1.4769203707642495 0.93816059415949415 -0.35769383863404119 0.59453139415859058 0.37357798010513482
decision_type=2 2 2 2 2 2
left_child=2 5 4 -4 -1 -2
right_child=1 -3 3 -5 -6 -7
leaf_value=0.10356561857692033 -0.17266413618844645 0.1640203492952681 0.11448597166867923 -0.13629060630250983 0.1454946699064632 -0.15724753581917575
leaf_weight=412.71067636087537 5.5362466350197792 12.469675190746784 31.916301058605313 14.271050337702034 138.53203669935465 4.5017438121140003
leaf_count=506 25 5 52 109 79 24
internal_value=0 0.0169489 0.108142 0.0370006 0.114103 -0.16575
internal_weight=0 22.5077 597.43 46.1874 551.243 10.038
internal_count=800 54 746 161 585 49
is_linear=0
shrinkage=0.1


Tree=9
num_leaves=8
num_cat=0
split_feature=2 2 7 2 3 3 7
split_gain=17.5333 86.2657 71.8127 28.1494 23.981 63.2916 20.89
threshold=-0.58298427007159936 0.023470900926537603 -0.73528746375822063 0.52947185361410665 0.65227053465624285 1.4184541859561628 -1.1359819583813244
decision_type=2 2 2 2 2 2 2
left_child=4 2 -2 -3 6 -6 -1
right_child=1 3 -4 -5 5 -7 -8
leaf_value=-0.13399544876581881 0.10319202806247399 0.1328128389760089 -0.16770500916823483 0.070877352942388769 -0.1729168440382679 0.11684484398128447 0.12871062509670766
leaf_weight=3.0661809742450705 16.52100295946002 131.51776423119009 24.003454517573118 166.00902261957526 10.225317087024449 28.684262659400702 236.24528735131025
leaf_count=31 33 114 109 282 54 23 154
internal_value=0 0.0796118 -0.0572658 0.0982551 0.113507 0.0406964 0.125345
internal_weight=0 338.051 40.5245 297.527 278.221 38.9096 239.311
internal_count=800 538 142 396 262 77 185
is_linear=0
shrinkage=0.1


Tree=10
num_leaves=5
num_cat=0
split_feature=3 2 0 2
split_gain=18.4017 34.0113 85.4667 26.7842
threshold=1.6417109053161527 0.52947185361410665 1.0000000180025095e-35 0.26897634832927281
decision_type=2 2 2 2
left_child=1 3 -3 -1
right_child=-2 2 -4 -5
leaf_value=0.081326411252366629 0.14286030993915066 -0.075950031228937592 0.095775207164588913 0.14161968539192357
leaf_weight=333.88771291077137 52.897214762866497 44.53592617996037 82.984952725470066 94.540604952722788
leaf_count=449 27 158 111 55
internal_value=0 0.0811371 0.0358012 0.0946312
internal_weight=0 555.949 127.521 428.428
internal_count=800 773 269 504
is_linear=0
shrinkage=0.1


Tree=11
num_leaves=8
num_cat=0
split_feature=2 2 7 7 3 3 7
split_gain=16.8401 70.3622 59.243 36.1559 21.3313 51.841 17.5852
threshold=-0.58298427007159936 0.023470900926537603 -0.73528746375822063 -1.2561903067682558 0.65227053465624285 1.4184541859561628 -1.1359819583813244
decision_type=2 2 2 2 2 2 2
left_child=4 2 -2 -3 6 -6 -1
right_child=1 3 -4 -5 5 -7 -8
leaf_value=-0.13266574436412357 0.084299385179689809 -0.1342684258715533 -0.16241458269446016 0.086519035299597299 -0.16727149007820918 0.098359866499903983 0.1119614280825449
leaf_weight=2.9769577197730532 16.59557156264782 7.6147784236818543 23.537375800311565 285.61444788426161 10.016129471361635 27.571238197386265 227.97506514936686
leaf_count=31 33 60 109 336 54 23 154
internal_value=0 0.063789 -0.0603947 0.0807855 0.0974381 0.0275755 0.108808
internal_weight=0 333.362 40.1329 293.229 268.539 37.5874 230.952
internal_count=800 538 142 396 262 77 185
is_linear=0
shrinkage=0.1


Tree=12
num_leaves=5
num_cat=0
split_feature=3 2 7 2
split_gain=15.9814 30.1527 72.9254 22.3074
threshold=1.6417109053161527 0.52947185361410665 0.53299771922273498 0.41047638307452722
decision_type=2 2 2 2
left_child=1 3 -3 -1
right_child=-2 2 -4 -5
leaf_value=0.07058230678485132 0.1261618648806937 -0.079432095875358003 0.080058649939039717 0.13522504462026635
leaf_weight=350.07901459001005 50.552136346697807 43.939825505018234 82.488634310662746 62.988929200917482
leaf_count=475 27 172 97 29
internal_value=0 0.0673605 0.0246281 0.0804397
internal_weight=0 539.496 126.428 413.068
internal_count=800 773 269 504
is_linear=0
shrinkage=0.1


Tree=13
num_leaves=8
num_cat=0
split_feature=2 2 4 7 3 3 7
split_gain=15.7267 35.9911 54.8693 26.2011 11.3404 44.7604 13.5757
threshold=-0.77377297511996113 0.18815262368535787 0.45780122564605136 -1.2561903067682558 0.66247279800350445 1.4184541859561628 -1.1359819583813244
decision_type=2 2 2 2 2 2 2
left_child=4 2 -2 -3 6 -6 -1
right_child=1 3 -4 -5 5 -7 -8
leaf_value=-0.13122204978618129 0.035104080030093791 -0.12993284549818568 -0.16839652801093707 0.076556809937085468 -0.1625955042502345 0.10182109937588341 0.099318964042322752
leaf_weight=2.5890457052737466 73.251252746209502 6.2944029700011006 16.17515048570931 258.91311647370458 8.6556008234620077 24.58896715939045 190.08699000626802
leaf_count=27 138 54 86 302 46 16 131
internal_value=0 0.053157 -0.00170443 0.071656 0.0869147 0.0329772 0.0962211
internal_weight=0 354.634 89.4264 265.208 225.921 33.2446 192.676
internal_count=800 580 224 356 220 62 158
is_linear=0
shrinkage=0.1


Tree=14
num_leaves=8
num_cat=0
split_feature=2 2 1 7 3 7 7
split_gain=14.6204 52.0714 48.2923 19.9794 16.8922 60.9325 12.9148
threshold=-0.58298427007159936 0.023470900926537603 0.73863292520205714 1.3796826078611202 0.65227053465624285 -0.69521801429591012 -1.1359819583813244
decision_type=2 2 2 2 2 2 2
left_child=4 2 -2 -3 6 -6 -1
right_child=1 3 -4 -5 5 -7 -8
leaf_value=-0.12867918489720459 -0.15875478128079387 0.047287701240818943 0.066258630540347502 0.11059897414337633 0.10315785399138561 -0.18375059212037495 0.092482984940942897
leaf_weight=2.6737786140292874 22.084779165685177 215.63201983552426 16.789009153842926 64.830885633826256 23.945183938369155 10.714394498616455 211.29810125380754
leaf_count=31 103 359 39 37 26 51 154
internal_value=0 0.0468888 -0.0615748 0.0619225 0.0792288 0.0144652 0.0897194
internal_weight=0 319.337 38.8738 280.463 248.631 34.6596 213.972
internal_count=800 538 142 396 262 77 185
is_linear=0
shrinkage=0.1


Tree=15
num_leaves=8
num_cat=0
split_feature=1 3 1 4 3 0 2
split_gain=15.0951 57.2913 17.6499 23.0714 11.7845 5.92376 0.447355
threshold=0.93816059415949415 0.54276668079531543 0.73863292520205714 -1.424226062646039 0.60749848800552941 1.0000000180025095e-35 -0.77377297511996113
decision_type=2 2 2 2 2 2 2
left_child=2 6 3 -1 -3 -4 -2
right_child=1 4 5 -5 -6 -7 -8
leaf_value=-0.042667314010794419 -0.17115223412276204 0.12642699725724621 0.073236853183050288 0.059081180136481476 0.016378865258383463 0.12667190020294658 -0.13727948351283475
leaf_weight=23.629348695278168 6.4504243787378099 19.886963486671448 36.695757903158665 391.77939392998815 19.053900901228189 47.733136132359505 9.8571850694715959
leaf_count=57 38 6 33 515 60 18 73
internal_value=0 0.00668139 0.0617651 0.0532935 0.0725801 0.103447 -0.150678
internal_weight=0 55.2485 499.838 415.409 38.9409 84.4289 16.3076
internal_count=800 177 623 572 66 51 111
is_linear=0
shrinkage=0.1


Tree=16
num_leaves=5
num_cat=0
split_feature=3 7 2 4
split_gain=14.8604 30.0999 28.2298 0.327074
threshold=1.6417109053161527 -1.3206498559032769 0.52947185361410665 -0.4962553823255928
decision_type=2 2 2 2
left_child=1 3 -3 -1
right_child=-2 2 -4 -5
leaf_value=-0.1504046743306377 0.10632787262034041 0.063613947355995487 0.0076119877144950323 -0.11100735839925027
leaf_weight=5.5071586668491364 45.637895949184895 371.00065040029585 118.84696212038398 3.4132742956280691
leaf_count=29 27 445 241 58
internal_value=0 0.0467116 0.0500267 -0.13533
internal_weight=0 498.768 489.848 8.92043
internal_count=800 773 686 87
is_linear=0
shrinkage=0.1


Tree=17
num_leaves=7
num_cat=0
split_feature=4 1 1 3 1 2
split_gain=13.8203 40.2738 20.5071 36.1314 16.054 0.163194
threshold=1.4383654842874518 1.4769203707642495 0.93816059415949415 0.59888683704932866 0.59453139415859058 -0.58298427007159936
decision_type=2 2 2 2 2 2
left_child=2 5 4 -4 -1 -2
right_child=1 -3 3 -5 -6 -7
leaf_value=0.04615147902874947 -0.19824029435797902 0.11482852042349399 -0.14626219988434344 0.049839299549575451 0.089379741340490815 -0.1704464175598428
leaf_weight=361.31002010032535 3.1340172765776515 8.9999876208603382 14.198591253720222 27.775050278753042 112.71053213998675 6.4816265413537621
leaf_count=506 16 5 101 60 79 33
internal_value=0 -0.0372055 0.0504979 -0.0164967 0.0564301 -0.179505
internal_weight=0 18.6156 515.994 41.9736 474.021 9.61564
internal_count=800 54 746 161 585 49
is_linear=0
shrinkage=0.1


Tree=18
num_leaves=5
num_cat=0
split_feature=3 3 0 3
split_gain=13.5152 26.914 75.6995 30.7572
threshold=1.6417109053161527 0.70489219437798278 -0.35769383863404119 0.51899245159935792
decision_type=2 2 2 2
left_child=1 3 -3 -1
right_child=-2 2 -4 -5
leaf_value=0.034970286547650539 0.097354456517842566 0.048672300732583051 -0.16970817262811858 0.10291362290856709
leaf_weight=320.34905172977597 42.967457011342049 53.927184529602528 22.494347332045436 84.123942535370588
leaf_count=524 27 76 119 54
internal_value=0 0.0388182 -0.015607 0.0491014
internal_weight=0 480.895 76.4215 404.473
internal_count=800 773 195 578
is_linear=0
shrinkage=0.1


Tree=19
num_leaves=7
num_cat=0
split_feature=7 2 3 2 3 4
split_gain=27.8768 13.0533 58.4425 13.4885 0.246324 0.0997672
threshold=-1.3206498559032769 1.2498116387684888 0.51899245159935792 1.0332925524027561 1.4647383762902322 -0.43660776586035838
decision_type=2 2 2 2 2 2
left_child=4 3 -3 -2 5 -1
right_child=1 2 -4 -5 -6 -7
leaf_value=-0.13252456917604938 0.041339510516868211 -0.1791570289150958 0.071962242503464266 0.091277885442552817 -0.16375845924315718 -0.10802055922191998
leaf_weight=4.6709341816604137 399.69827255792916 13.761281900107859 28.381091840565205 62.551937088370323 1.9607448354363439 2.5789298070594651
leaf_count=28 561 67 32 48 11 53
internal_value=0 0.0432399 -0.0100389 0.0480972 -0.132313 -0.123808
internal_weight=0 504.393 42.1424 462.25 9.21061 7.24986
internal_count=800 708 99 609 92 81
is_linear=0
shrinkage=0.1


Tree=20
num_leaves=7
num_cat=0
split_feature=7 2 2 3 3 4
split_gain=23.8417 13.1083 47.3078 12.6392 0.18189 0.0702608
threshold=-1.3206498559032769 -0.58298427007159936 0.18815262368535787 0.65227053465624285 1.4647383762902322 -0.43660776586035838
decision_type=2 2 2 2 2 2
left_child=4 3 -3 -2 5 -1
right_child=1 2 -4 -5 -6 -7
leaf_value=-0.12869134987178707 0.068310987957077213 -0.060065877983405569 0.045012580409909755 -0.0024765124263489841 -0.15657254423114814 -0.10722803881601826
leaf_weight=4.3457802198827267 181.92620395123959 52.544803693890572 232.11069276556373 29.283575780689716 1.8513184636831281 2.3498781584203225
leaf_count=28 165 164 314 65 11 53
internal_value=0 0.0396212 0.0256161 0.0584965 -0.12883 -0.121159
internal_weight=0 495.865 284.655 211.21 8.54698 6.69566
internal_count=800 708 478 230 92 81
is_linear=0
shrinkage=0.1


Tree=21
num_leaves=5
num_cat=0
split_feature=4 4 1 2
split_gain=13.3325 86.3948 23.4066 1.33195
threshold=-1.7930058240103495 -1.424226062646039 0.93816059415949415 -0.79542312904128043
decision_type=2 2 2 2
left_child=-1 3 -3 -2
right_child=1 2 -4 -5
leaf_value=0.11099912988195355 -0.27112659338942791 0.04426042861802023 -0.039734170827605442 -0.19869802701530961
leaf_weight=21.389444559812546 3.3552044779062262 423.71754940971732 35.9953334024176 10.437761541455982
leaf_count=9 19 563 156 53
internal_value=0 0.0302848 0.0376837 -0.216317
internal_weight=0 473.506 459.713 13.793
internal_count=800 791 719 72
is_linear=0
shrinkage=0.1


Tree=22
num_leaves=8
num_cat=0
split_feature=2 2 6 3 7 1 4
split_gain=13.398 71.7875 20.1356 16.3849 49.5748 12.9835 0.21258
threshold=-0.48522475889618449 0.023470900926537603 1.3199852583829967 0.65227053465624285 -0.73528746375822063 -1.6697613612294278 0.55819769713743395
decision_type=2 2 2 2 2 2 2
left_child=3 6 -3 5 -5 -1 -2
right_child=1 2 -4 4 -6 -7 -8
leaf_value=-0.34753289096898532 -0.16593141389680327 0.015513679377851142 0.083157365611669448 0.079299039085183681 -0.18009896187502986 0.062184370520442712 -0.14511664886920669
leaf_weight=0.7766520082950582 14.117612536996605 188.73296670336276 57.386061828583479 19.753325974568728 11.750255465507506 186.78295135032386 7.5202698800712815
leaf_count=4 71 346 50 27 58 200 44
internal_value=0 0.0159329 0.0312857 0.0492793 -0.0174516 0.0604878 -0.158697
internal_weight=0 267.757 246.119 219.063 31.5036 187.56 21.6379
internal_count=800 511 396 289 85 204 115
is_linear=0
shrinkage=0.1


Tree=23
num_leaves=5
num_cat=0
split_feature=5 7 3 3
split_gain=12.7497 19.4929 100.418 19.1885
threshold=1.0000000180025095e-35 0.35529842160727138 0.10287788421604742 -1.3407572547286233
decision_type=2 2 2 2
left_child=1 2 -1 -3
right_child=-2 3 -4 -5
leaf_value=-0.11133682196941019 0.092579400820023972 0.091186595411692634 0.045666409871991463 0.026948416435546588
leaf_weight=56.861756256781518 29.133390661329031 62.140704732388258 143.65795304626226 184.74919374287128
leaf_count=237 21 40 232 270
internal_value=0 0.0243058 0.0011447 0.0431168
internal_weight=0 447.41 200.52 246.89
internal_count=800 779 469 310
is_linear=0
shrinkage=0.1


Tree=24
num_leaves=5
num_cat=0
split_feature=3 2 0 2
split_gain=12.0599 27.4976 66.1576 20.0252
threshold=1.6417109053161527 0.52947185361410665 1.0000000180025095e-35 0.41047638307452722
decision_type=2 2 2 2
left_child=1 3 -3 -1
right_child=-2 2 -4 -5
leaf_value=0.025769187289084505 0.081006070975212618 -0.12167735228662091 0.037797142293201906 0.095613685074926069
leaf_weight=272.194459781982 36.870458662509918 41.351414397358894 70.132469138130546 48.340137190185487
leaf_count=475 27 158 111 29
internal_value=0 0.0214238 -0.0213549 0.0363025
internal_weight=0 432.018 111.484 320.535
internal_count=800 773 269 504
is_linear=0
shrinkage=0.1


Tree=25
num_leaves=8
num_cat=0
split_feature=2 2 6 3 7 3 4
split_gain=11.6299 58.5018 19.219 15.4442 40.8931 13.028 0.144419
threshold=-0.48522475889618449 0.023470900926537603 1.3199852583829967 0.65227053465624285 -0.73528746375822063 0.59888683704932866 0.55819769713743395
decision_type=2 2 2 2 2 2 2
left_child=3 6 -3 5 -5 -1 -2
right_child=1 2 -4 4 -6 -7 -8
leaf_value=0.040885338928221319 -0.15760896110874223 0.0081540159601882593 0.076042707075574312 0.067637898869293264 -0.17354172140021751 0.11483758363155046 -0.14003904814859897
leaf_weight=148.51559140533209 13.549905935302379 180.3925621015951 54.237565360963345 18.265643289312724 11.429167052730916 28.37293728441 7.1452814731746903
leaf_count=196 71 346 50 27 58 8 44
internal_value=0 0.0096312 0.0238473 0.0415445 -0.0251892 0.0527473 -0.151543
internal_weight=0 255.325 234.63 206.583 29.6948 176.889 20.6952
internal_count=800 511 396 289 85 204 115
is_linear=0
shrinkage=0.1


Tree=26
num_leaves=5
num_cat=0
split_feature=4 4 4 2
split_gain=11.5945 65.7417 22.9207 1.09063
threshold=-1.7930058240103495 -1.424226062646039 -1.2704488564211449 -0.79542312904128043
decision_type=2 2 2 2
left_child=-1 3 -3 -2
right_child=1 2 -4 -5
leaf_value=0.098812840194303489 -0.2510346961746695 0.090518973008131484 0.017146456068660224 -0.18481257510251359
leaf_weight=18.825922474265099 3.3315986208617678 48.068332718685269 372.58869854267687 9.8099055774509889
leaf_count=9 19 32 687 53
internal_value=0 0.01865 0.0255307 -0.201601
internal_weight=0 433.799 420.657 13.1415
internal_count=800 791 719 72
is_linear=0
shrinkage=0.1


Tree=27
num_leaves=5
num_cat=0
split_feature=3 2 2 0
split_gain=11.2064 23.7532 55.6024 18.6226
threshold=1.6417109053161527 0.52947185361410665 1.1104430062004504 -1.0712975067318788
decision_type=2 2 2 2
left_child=1 3 -3 -1
right_child=-2 2 -4 -5
leaf_value=-0.032433651678750154 0.074709269281421603 -0.12866904075304683 0.024461869325653474 0.039718941424641642
leaf_weight=41.43017416074872 34.626756824553013 34.882694341242313 74.045367932878435 261.89575765747577
leaf_count=94 27 135 134 410
internal_value=0 0.0154794 -0.0245762 0.0298639
internal_weight=0 412.254 108.928 303.326
internal_count=800 773 269 504
is_linear=0
shrinkage=0.1


Tree=28
num_leaves=4
num_cat=0
split_feature=5 1 7
split_gain=11.3405 20.5823 16.5333
threshold=1.0000000180025095e-35 -1.6697613612294278 0.35529842160727138
decision_type=2 2 2
left_child=1 -1 -3
right_child=-2 2 -4
leaf_value=-0.24284107911687636 0.082390409483299759 -0.0058895916898073454 0.034346880189089213
leaf_weight=3.089452199637889 25.996804729104042 185.7276279758662 226.86190728656948
leaf_count=15 21 460 304
internal_value=0 0.0143089 0.0162344
internal_weight=0 415.679 412.59
internal_count=800 779 764
is_linear=0
shrinkage=0.1


Tree=29
num_leaves=7
num_cat=0
split_feature=4 1 1 4 4 2
split_gain=10.5508 29.3378 14.9751 25.1148 20.0299 0.26005
threshold=1.4383654842874518 1.4769203707642495 0.93816059415949415 -1.7930058240103495 -1.424226062646039 -0.54441168478138047
decision_type=2 2 2 2 2 2
left_child=2 5 4 -4 -1 -2
right_child=1 -3 3 -5 -6 -7
leaf_value=-0.071447406342710684 -0.20534207823328413 0.096043429997386923 0.11685079109244462 -0.086885166960931515 0.030713445225211668 -0.16951626153805399
leaf_weight=20.253001973032951 3.0908531304448834 6.5880641788244239 7.73585321009159 27.772865721024573 366.1792969442904 5.8817108161747447
leaf_count=60 17 5 2 159 525 32
internal_value=0 -0.0641997 0.0196485 -0.0424997 0.0253592 -0.181857
internal_weight=0 15.5606 421.941 35.5087 386.432 8.97256
internal_count=800 54 746 161 585 49
is_linear=0
shrinkage=0.1


Tree=30
num_leaves=5
num_cat=0
split_feature=4 4 4 2
split_gain=10.3972 49.909 20.8253 0.686905
threshold=-1.7930058240103495 -1.424226062646039 -1.2704488564211449 -0.79542312904128043
decision_type=2 2 2 2
left_child=-1 3 -3 -2
right_child=1 2 -4 -5
leaf_value=0.091503699906689315 -0.22305730099752141 0.082816524626644503 0.010191107116871087 -0.17005100878012638
leaf_weight=17.163036540150642 3.3218412622809401 44.390652190893888 357.15851128241047 9.2596729379147273
leaf_count=9 19 32 687 53
internal_value=0 0.0120748 0.0182197 -0.184046
internal_weight=0 414.131 401.549 12.5815
internal_count=800 791 719 72
is_linear=0
shrinkage=0.1


Tree=31
num_leaves=5
num_cat=0
split_feature=3 2 0 2
split_gain=10.6859 20.042 51.4936 16.3943
threshold=1.6417109053161527 0.52947185361410665 1.0000000180025095e-35 0.18815262368535787
decision_type=2 2 2 2
left_child=1 3 -3 -1
right_child=-2 2 -4 -5
leaf_value=0.009065832194668836 0.069002647241249868 -0.11669924856632047 0.02694145208829651 0.063810714085789574
leaf_weight=215.08037260128185 32.490765877068043 40.373511051759124 65.360909393057227 73.360233354382217
leaf_count=433 27 158 111 71
internal_value=0 0.009337 -0.0279061 0.0229893
internal_weight=0 394.175 105.734 288.441
internal_count=800 773 269 504
is_linear=0
shrinkage=0.1


Tree=32
num_leaves=8
num_cat=0
split_feature=2 2 7 7 6 4 4
split_gain=10.1475 47.3632 18.6624 88.3489 17.275 14.0251 0.137277
threshold=-0.48522475889618449 0.023470900926537603 0.82393676531864102 1.4998909562480514 1.3199852583829967 -0.99553277128431106 0.55819769713743395
decision_type=2 2 2 2 2 2 2
left_child=2 6 5 -4 -3 -1 -2
right_child=1 4 3 -5 -6 -7 -8
leaf_value=-0.043857767877646503 -0.15523880372864735 -0.0028332824180884266 -0.30791595796846449 0.059508191554858883 0.064976221019729094 0.05521441957302238 -0.1377256256628189
leaf_weight=15.95048646442592 12.956200870685281 166.60454240627587 8.8846081756055337 24.844913586974144 48.508520166389644 137.17861811351031 6.8379615955054751
leaf_count=42 71 346 51 24 50 172 44
internal_value=0 -0.00116303 0.0300626 -0.0372741 0.0124579 0.0448947 -0.149189
internal_weight=0 234.907 186.859 33.7295 215.113 153.129 19.7942
internal_count=800 511 289 75 396 214 115
is_linear=0
shrinkage=0.1


Tree=33
num_leaves=5
num_cat=0
split_feature=4 4 4 2
split_gain=9.74889 39.5292 18.1863 0.376512
threshold=-1.7930058240103495 -1.424226062646039 -1.2704488564211449 -0.79542312904128043
decision_type=2 2 2 2
left_child=-1 3 -3 -2
right_child=1 2 -4 -5
leaf_value=0.087734711027795911 -0.20037850268303742 0.077046642072164148 0.0065867036894496165 -0.16039551680301337
leaf_weight=16.172232404351234 3.2413954176008692 40.968211337924004 346.08339303499088 8.6145347775891405
leaf_count=9 19 32 687 53
internal_value=0 0.00853524 0.0140447 -0.171327
internal_weight=0 398.908 387.052 11.8559
internal_count=800 791 719 72
is_linear=0
shrinkage=0.1


Tree=34
num_leaves=7
num_cat=0
split_feature=7 7 3 7 3 4
split_gain=14.7773 11.4065 63.867 28.7604 0.276472 0.0438384
threshold=-1.3206498559032769 -0.69521801429591012 0.10287788421604742 -0.30497641953253923 1.4647383762902322 -0.43660776586035838
decision_type=2 2 2 2 2 2
left_child=4 2 -2 -3 5 -1
right_child=1 3 -4 -5 -6 -7
leaf_value=-0.12487133223916905 -0.18451034332181049 -0.089446890020374925 0.076397965426978201 0.013986420102131913 -0.16178365458545507 -0.10673605157860662
leaf_weight=3.3356509748846292 10.670279972255228 29.67595773562789 77.714575780555606 285.61284466926008 1.9035541415214536 2.2200627303682259
leaf_count=28 69 90 77 472 11 53
internal_value=0 0.0131511 0.0448998 0.00425096 -0.128894 -0.117624
internal_weight=0 403.674 88.3849 315.289 7.45927 5.55571
internal_count=800 708 146 562 92 81
is_linear=0
shrinkage=0.1


Tree=35
num_leaves=7
num_cat=0
split_feature=7 7 3 7 3 4
split_gain=12.9042 9.79668 54.532 22.8279 0.201083 0.0318432
threshold=-1.3206498559032769 -0.69521801429591012 0.10287788421604742 -0.30497641953253923 1.4647383762902322 -0.43660776586035838
decision_type=2 2 2 2 2 2
left_child=4 2 -2 -3 5 -1
right_child=1 3 -4 -5 -6 -7
leaf_value=-0.12222449336449254 -0.17601341829808101 -0.078541804383772743 0.071573899431828722 0.012666470286041884 -0.15472590395469707 -0.10607024015478157
leaf_weight=3.0802114717662334 10.096599245443938 30.37659271247685 74.81243684142828 283.93126487731934 1.796861123293638 2.0207614623941472
leaf_count=28 69 90 77 472 11 53
internal_value=0 0.0119936 0.0421331 0.00385156 -0.125959 -0.115825
internal_weight=0 399.217 84.909 314.308 6.89783 5.10097
internal_count=800 708 146 562 92 81
is_linear=0
shrinkage=0.1


Tree=36
num_leaves=6
num_cat=0
split_feature=7 5 2 3 4
split_gain=11.2966 10.2676 12.2619 0.146886 0.0231942
threshold=-1.3206498559032769 1.0000000180025095e-35 -0.83053782027631684 1.4647383762902322 -0.43660776586035838
decision_type=2 2 2 2 2
left_child=3 2 -2 4 -1
right_child=1 -3 -4 -5 -6
leaf_value=-0.11989064997894208 0.031249884495956688 0.074771639215306759 -0.0066794180559252353 -0.14862810404569962 -0.10547247045802302
leaf_weight=2.8385510835796595 132.53405308350921 23.680844437330961 238.81622218620032 1.6890924423933027 1.838294609915464
leaf_count=28 177 20 511 11 53
internal_value=0 0.0109287 0.00685746 -0.123352 -0.114223
internal_weight=0 395.031 371.35 6.36594 4.67685
internal_count=800 708 688 92 81
is_linear=0
shrinkage=0.1


Tree=37
num_leaves=5
num_cat=0
split_feature=2 2 2 2
split_gain=14.7524 12.3986 33.9635 7.48275
threshold=-1.6817865515831325 -1.3477795302779803 -1.2669568949942411 -1.5282128348635169
decision_type=2 2 2 2
left_child=-1 3 -3 -2
right_child=1 2 -4 -5
leaf_value=-0.25692544728310091 0.0086623089648089902 -0.2982704269653112 0.005130886768896701 0.079064609110099771
leaf_weight=2.0909564755856982 25.537396599072963 3.7313247453421345 329.85929882433265 36.926906764507294
leaf_count=12 44 21 691 32
internal_value=0 0.00939352 0.00173724 0.0502819
internal_weight=0 396.055 333.591 62.4643
internal_count=800 788 712 76
is_linear=0
shrinkage=0.1


Tree=38
num_leaves=4
num_cat=0
split_feature=2 2 2
split_gain=12.1482 11.8563 37.4363
threshold=-1.6817865515831325 -1.6659708433301124 -1.5632716082981153
decision_type=2 2 2
left_child=-1 -2 -3
right_child=1 2 -4
leaf_value=-0.23502127389152794 0.10348801689140051 -0.2754069405119432 0.008854739129709242
leaf_weight=2.0587725071236482 12.722846299409865 4.6906883628107598 376.32006950583309
leaf_count=12 4 28 756
internal_value=0 0.00852615 0.00535515
internal_weight=0 393.734 381.011
internal_count=800 788 784
is_linear=0
shrinkage=0.1


Tree=39
num_leaves=5
num_cat=0
split_feature=2 2 2 2
split_gain=10.106 10.819 26.6833 6.34639
threshold=-1.6817865515831325 -1.3477795302779803 -1.2669568949942411 -1.5282128348635169
decision_type=2 2 2 2
left_child=-1 3 -3 -2
right_child=1 2 -4 -5
leaf_value=-0.21722401021569368 0.0079289942323408982 -0.26151284309708267 0.0037552968092123776 0.074273081690625312
leaf_weight=2.0073061119765034 24.495420668274164 3.8363350220024577 328.15818196116015 35.049578450620174
leaf_count=12 44 21 691 32
internal_value=0 0.00772986 0.000690013 0.0469807
internal_weight=0 391.54 331.995 59.545
internal_count=800 788 712 76
is_linear=0
shrinkage=0.1


Tree=40
num_leaves=4
num_cat=0
split_feature=5 1 7
split_gain=9.49655 15.0295 13.219
threshold=1.0000000180025095e-35 -1.6697613612294278 0.35529842160727138
decision_type=2 2 2
left_child=1 -1 -3
right_child=-2 2 -4
leaf_value=-0.22124950353680048 0.069068704992825622 -0.017061064778665379 0.021142800937593551
leaf_weight=2.9877457674592725 22.48278933763504 164.68309520557523 201.25083053391427
leaf_count=15 21 460 304
internal_value=0 0.00212593 0.00394972
internal_weight=0 368.922 365.934
internal_count=800 779 764
is_linear=0
shrinkage=0.1


Tree=41
num_leaves=5
num_cat=0
split_feature=3 3 0 3
split_gain=8.92475 17.7646 42.9796 27.3563
threshold=1.6417109053161527 0.70489219437798278 -0.35769383863404119 0.51899245159935792
decision_type=2 2 2 2
left_child=1 3 -3 -1
right_child=-2 2 -4 -5
leaf_value=-0.0036968116136900696 0.059714716701828832 0.011161057360526291 -0.16808862464694133 0.072464548627714898
leaf_weight=242.34759444976225 28.087529957294464 40.302124002948403 20.02209977991879 58.556783015839756
leaf_count=524 27 76 119 54
internal_value=0 0.0011951 -0.0483334 0.0111244
internal_weight=0 361.229 60.3242 300.904
internal_count=800 773 195 578
is_linear=0
shrinkage=0.1


Tree=42
num_leaves=7
num_cat=0
split_feature=4 0 1 2 2 7
split_gain=9.37074 34.291 49.4888 33.036 25.323 17.9784
threshold=-0.021734601289324623 1.0695134975616343 -1.5881167518691675 1.2498116387684888 -1.5632716082981153 1.4424000070195191
decision_type=2 2 2 2 2 2
left_child=4 3 -3 -2 -1 -6
right_child=1 2 -4 -5 5 -7
leaf_value=-0.26145310294368579 0.015131475441068 0.091529534205815097 -0.24759262362977752 -0.18022711741036437 0.008036995319921381 0.079763357817475414
leaf_weight=3.1675035692751399 146.04900154611096 6.3883242420852211 13.184236329980193 9.2014682083390635 162.64378724806011 44.508960641920567
leaf_count=19 275 4 84 50 336 32
internal_value=0 -0.0121724 -0.136906 0.00355286 0.0191574 0.0234482
internal_weight=0 174.823 19.5726 155.25 210.32 207.153
internal_count=800 413 88 325 387 368
is_linear=0
shrinkage=0.1


Tree=43
num_leaves=8
num_cat=0
split_feature=6 7 1 4 7 0 7
split_gain=9.2484 39.5432 37.8451 29.6902 22.0988 14.0282 0.955013
threshold=-0.70741941713669088 0.74902431632388666 -1.4811368978136659 -1.2905457741193569 0.56435641880193443 1.0000000180025095e-35 -0.34504586899484968
decision_type=2 2 2 2 2 2 2
left_child=1 5 6 -3 -4 -1 -2
right_child=2 3 4 -5 -6 -7 -8
leaf_value=0.007355052397300537 -0.16821117792283868 0.032972283354366159 -0.031349365525903949 -0.23339552001575911 0.02907955540222858 0.078891792594622256 -0.23482764005053613
leaf_weight=48.317270976258442 3.5790425706654787 7.4879859536886242 113.67628576443531 9.4852504432201368 129.41053658630699 63.357203544583172 5.397364526987074
leaf_count=108 20 11 339 48 179 70 25
internal_value=0 0.0263263 -0.00662518 -0.115884 0.000820783 0.0479406 -0.208267
internal_weight=0 128.648 252.063 16.9732 243.087 111.674 8.97641
internal_count=800 237 563 59 518 178 45
is_linear=0
shrinkage=0.1


Tree=44
num_leaves=7
num_cat=0
split_feature=7 7 3 3 3 4
split_gain=8.82041 10.6028 43.9607 17.4773 0.104808 0.0136041
threshold=-1.3206498559032769 -0.69521801429591012 0.10287788421604742 0.70489219437798278 1.4647383762902322 -0.43660776586035838
decision_type=2 2 2 2 2 2
left_child=4 2 -2 -3 5 -1
right_child=1 3 -4 -5 -6 -7
leaf_value=-0.11684872030994796 -0.16675232214096614 0.008042120617292467 0.066243765494145249 -0.058123656143036967 -0.1428021982312874 -0.10488033342989517
leaf_weight=2.46652901917696 9.1792252417653781 245.7825152175501 68.734656821936369 47.663416591472924 1.5579619482159612 1.5443901172839094
leaf_count=28 69 414 77 148 11 53
internal_value=0 0.0060018 0.0387939 -0.00270496 -0.12079 -0.11224
internal_weight=0 371.36 77.9139 293.446 5.56888 4.01092
internal_count=800 708 146 562 92 81
is_linear=0
shrinkage=0.1


Tree=45
num_leaves=7
num_cat=0
split_feature=3 3 4 3 0 4
split_gain=8.08374 37.4119 34.6993 23.7289 17.8318 30.8894
threshold=1.3436831943110306 0.70489219437798278 -1.7930058240103495 0.51899245159935792 -0.35769383863404119 1.2033212798399855
decision_type=2 2 2 2 2 2
left_child=1 3 -3 -1 -2 -6
right_child=4 2 -4 -5 5 -7
leaf_value=-0.0056499399556918491 0.073745906252725521 0.11412565383518228 -0.16766660018762225 0.067316813045222176 -0.20686263685867654 0.075845317665142825
leaf_weight=234.03704445087351 40.494591113179922 5.422655105590823 22.506498881150037 55.052231406792998 7.0594634413719168 8.5406150631606561
leaf_count=524 35 1 137 54 41 8
internal_value=0 -0.00243228 -0.112955 0.00824536 0.0387512 -0.0520878
internal_weight=0 317.018 27.9292 289.089 56.0947 15.6001
internal_count=800 716 138 578 84 49
is_linear=0
shrinkage=0.1


Tree=46
num_leaves=8
num_cat=0
split_feature=6 7 1 2 7 4 3
split_gain=8.14254 31.6008 29.6233 23.8288 53.8283 14.9378 13.0473
threshold=-0.70741941713669088 0.74902431632388666 -1.1503502143053128 -0.83053782027631684 0.63055811791357763 -0.85756813078825489 0.26879548705941453
decision_type=2 2 2 2 2 2 2
left_child=1 6 -3 5 -5 -2 -1
right_child=3 2 -4 4 -6 -7 -8
leaf_value=0.064840556642418667 -0.076804613274831221 0.059863584576024809 -0.21390869249780647 -0.10180217949584119 0.019091131708296821 0.047311377742698252 -0.015255567613632871
leaf_weight=79.359194972552359 10.994255931116639 6.5833347290754345 9.8896830268204194 63.447112043388188 87.793796673417091 82.173140027793124 27.345452288165689
leaf_count=107 33 8 51 284 139 107 71
internal_value=0 0.024413 -0.104497 -0.00711783 -0.0316249 0.032665 0.0443141
internal_weight=0 123.178 16.473 244.408 151.241 93.1674 106.705
internal_count=800 237 59 563 423 140 178
is_linear=0
shrinkage=0.1


Tree=47
num_leaves=7
num_cat=0
split_feature=3 3 4 3 4 2
split_gain=8.15524 30.1061 28.9653 21.1377 20.3776 6.61558
threshold=1.3436831943110306 0.70489219437798278 -1.7930058240103495 0.51899245159935792 -0.63701606159583568 0.42679115150334529
decision_type=2 2 2 2 2 2
left_child=1 3 -3 -1 -2 -6
right_child=4 2 -4 -5 5 -7
leaf_value=-0.0067379289831156972 -0.17017028674173917 0.11236383503265127 -0.15787125553528492 0.063567557540171363 -0.00025189629652752984 0.080133761332881331
leaf_weight=229.83885040064342 4.2899843268096438 4.8963236808776882 20.883928861003369 52.539549876004457 14.386565390974281 35.502506643533707
leaf_count=524 23 1 137 54 36 25
internal_value=0 -0.0031011 -0.106547 0.00634317 0.0389689 0.0569529
internal_weight=0 308.159 25.7803 282.378 54.1791 49.8891
internal_count=800 716 138 578 84 61
is_linear=0
shrinkage=0.1


Tree=48
num_leaves=8
num_cat=0
split_feature=1 3 1 1 3 0 2
split_gain=8.42545 20.3803 17.1979 14.4047 8.80549 7.05533 0.449708
threshold=0.93816059415949415 0.54276668079531543 0.73863292520205714 -0.048412430637277695 0.60749848800552941 1.0000000180025095e-35 -0.79542312904128043
decision_type=2 2 2 2 2 2 2
left_child=2 6 3 -1 -3 -4 -2
right_child=1 4 5 -5 -6 -7 -8
leaf_value=0.011170776691847453 -0.16745247110025735 0.088640994929933326 0.015545127294837483 -0.041576015589898985 -0.042918062302998057 0.089352210443563368 -0.12915087157966496
leaf_weight=200.73656645789742 5.2306672241538745 9.2627971395850199 21.752455528825521 69.768734912388027 11.286927925422786 32.011141896247864 7.4055408064741641
leaf_count=385 36 6 33 187 60 18 75
internal_value=0 -0.0450694 0.00783328 -0.00243368 0.0163822 0.0594903 -0.145006
internal_weight=0 33.1859 324.269 270.505 20.5497 53.7636 12.6362
internal_count=800 177 623 572 66 51 111
is_linear=0
shrinkage=0.1


Tree=49
num_leaves=7
num_cat=0
split_feature=4 7 3 2 2 4
split_gain=8.27064 27.9646 54.7672 20.6426 19.4491 14.9698
threshold=-0.021734601289324623 1.0155732627470824 1.3436831943110306 1.2618606429158508 -1.5632716082981153 -0.85756813078825489
decision_type=2 2 2 2 2 2
left_child=4 3 -3 -2 -1 -6
right_child=1 2 -4 -5 5 -7
leaf_value=-0.23694509662444574 0.011739697652469424 -0.24897240096048867 0.075909630629343638 -0.15591526026901831 -0.013001908477435542 0.043993333195364144
leaf_weight=2.9785935464315108 131.40021021594293 13.047612441703679 8.6147940978407842 7.7787310283165416 78.218270564451814 112.16570559004322
leaf_count=19 288 68 7 50 194 174
internal_value=0 -0.0140808 -0.119772 0.00236944 0.0166102 0.0205771
internal_weight=0 160.841 21.6624 139.179 193.363 190.384
internal_count=800 413 75 338 387 368
is_linear=0
shrinkage=0.1


Tree=50
num_leaves=8
num_cat=0
split_feature=3 3 1 7 1 6 3
split_gain=7.97296 42.5594 36.3445 35.9601 15.493 5.80117 0.213059
threshold=-1.2993614632978396 -0.74609523046743198 -1.416135404468138 0.22637932333722918 -1.0415935202391418 0.88554139934306353 -1.6106438986803064
decision_type=2 2 2 2 2 2 2
left_child=3 2 -2 6 -3 -5 -1
right_child=1 4 -4 5 -6 -7 -8
leaf_value=-0.1924018142401393 0.055454981238319261 -0.053693611077491515 -0.207341107738305 0.029968449744765126 0.016921486975605377 0.095683958492900831 -0.15748801789022029
leaf_weight=3.8938544369302681 7.5037731267511871 35.949993846938014 17.620064547285438 26.528036331757903 228.87816378753632 27.21350559592247 3.1714486246928573
leaf_count=23 8 114 109 38 467 12 29
internal_value=0 -0.00446477 -0.128851 0.035362 0.0073356 0.0632453 -0.17673
internal_weight=0 289.952 25.1238 60.8068 264.828 53.7415 7.0653
internal_count=800 698 117 102 581 50 52
is_linear=0
shrinkage=0.1


Tree=51
num_leaves=8
num_cat=0
split_feature=6 7 1 2 7 6 4
split_gain=7.76552 21.3641 25.7183 17.4014 42.0087 12.9401 10.1584
threshold=-0.70741941713669088 0.74902431632388666 -1.2266253067946351 -0.83053782027631684 0.63055811791357763 -0.85223403681666843 -0.85756813078825489
decision_type=2 2 2 2 2 2 2
left_child=1 5 -3 6 -5 -1 -2
right_child=3 2 -4 4 -6 -7 -8
leaf_value=0.015525701638623416 -0.061364340706266646 0.07280763323452924 -0.18758617768572214 -0.093192835747229752 0.01619332633370564 0.092336050014727528 0.040523073232183189
leaf_weight=67.699769947212189 11.258556824177502 6.2783868610858908 9.5815022420138103 60.418018146883696 83.810965269804001 32.443946631625295 74.793531219824217
leaf_count=154 33 7 52 284 139 24 107
internal_value=0 0.0233319 -0.0845052 -0.00839565 -0.0296289 0.0404102 0.0271927
internal_weight=0 116.004 15.8599 230.281 144.229 100.144 86.0521
internal_count=800 237 59 563 423 178 140
is_linear=0
shrinkage=0.1


Tree=52
num_leaves=5
num_cat=0
split_feature=5 3 3 7
split_gain=6.95775 9.25508 40.0002 29.8165
threshold=1.0000000180025095e-35 -1.2993614632978396 -0.48703072157899013 0.22637932333722918
decision_type=2 2 2 2
left_child=1 3 -3 -1
right_child=-2 2 -4 -5
leaf_value=-0.16473886090920592 0.06085495801600993 -0.10187582702848048 0.0070199589958671428 0.061267277400063484
leaf_weight=6.6006394030991933 19.013006987050176 39.658474141033366 225.71818625973538 50.480262130498886
leaf_count=52 21 175 504 48
internal_value=0 -0.00139647 -0.00925367 0.0351327
internal_weight=0 322.458 265.377 57.0809
internal_count=800 779 679 100
is_linear=0
shrinkage=0.1


Tree=53
num_leaves=7
num_cat=0
split_feature=1 4 4 0 2 1
split_gain=6.85001 11.6976 7.75776 26.3525 16.6737 0.162444
threshold=1.2843034820829848 1.5379424164783682 -0.021734601289324623 1.0695134975616343 -1.5632716082981153 1.4769203707642495
decision_type=2 2 2 2 2 2
left_child=2 5 4 -4 -1 -2
right_child=1 -3 3 -5 -6 -7
leaf_value=-0.22836507677784576 -0.14683895912121542 0.071262893126143853 0.0027420620196506079 -0.13136093671185675 0.022401132795247618 -0.11834022316715742
leaf_weight=2.6919214823283246 5.4028092552907747 3.9730999441817394 129.90688265860081 16.516719040810131 176.65513044130057 3.175761541351676
leaf_count=17 43 6 284 73 318 59
internal_value=0 -0.0705905 0.00469378 -0.0123849 0.0186372 -0.136289
internal_weight=0 12.5517 325.771 146.424 179.347 8.57857
internal_count=800 108 692 357 335 102
is_linear=0
shrinkage=0.1


Tree=54
num_leaves=6
num_cat=0
split_feature=2 2 1 0 6
split_gain=6.87249 12.5835 11.0496 7.75118 8.46836
threshold=-1.3477795302779803 -1.157086911576269 0.93816059415949415 -0.35769383863404119 -0.41779017777673549
decision_type=2 2 2 2 2
left_child=3 -2 -3 -1 -5
right_child=1 2 -4 4 -6
leaf_value=-0.034780814122592436 -0.11741197480014275 0.0049223974026302757 -0.075118741515310519 0.091353207241226961 -0.0046496700729023611
leaf_weight=12.130519419675691 9.5206781872548145 256.01631457032636 18.493090982316062 25.338400569045916 14.415593919111414
leaf_count=31 39 529 144 21 36
internal_value=0 -0.00438969 -0.000469797 0.0351898 0.0565406
internal_weight=0 284.03 274.509 51.8845 39.754
internal_count=800 712 673 88 57
is_linear=0
shrinkage=0.1


Tree=55
num_leaves=7
num_cat=0
split_feature=3 3 4 3 4 2
split_gain=6.8147 22.6091 26.1083 16.6487 15.8457 6.06673
threshold=1.3436831943110306 0.70489219437798278 -1.7930058240103495 0.51899245159935792 -0.63701606159583568 0.42679115150334529
decision_type=2 2 2 2 2 2
left_child=1 3 -3 -1 -2 -6
right_child=4 2 -4 -5 5 -7
leaf_value=-0.0079316520931915022 -0.15699772784409236 0.11183326106357293 -0.15092076102433882 0.057441781864670471 -0.0039837356487418671 0.075151543189913003
leaf_weight=212.39734151307493 3.9444264359772196 4.7307786941528347 18.848722669761628 47.706382479518652 13.753584228456019 32.768741887062788
leaf_count=524 23 1 137 54 36 25
internal_value=0 -0.00444132 -0.0982042 0.00405868 0.0354405 0.0517565
internal_weight=0 283.683 23.5795 260.104 50.4668 46.5223
internal_count=800 716 138 578 84 61
is_linear=0
shrinkage=0.1


Tree=56
num_leaves=8
num_cat=0
split_feature=6 7 1 3 3 3 3
split_gain=6.07881 16.8005 23.8439 16.5525 60.7598 12.6027 11.8987
threshold=-0.70741941713669088 0.74902431632388666 -1.2571013276551066 0.51899245159935792 0.14579006212759824 0.26879548705941453 0.70489219437798278
decision_type=2 2 2 2 2 2 2
left_child=1 5 -3 4 -2 -1 -5
right_child=3 2 -4 6 -6 -7 -8
leaf_value=0.057770902043619426 -0.0095894940888327992 0.08358531265049908 -0.1780412889598704 0.06504836460468999 -0.24898737106643762 -0.02614150666652957 -0.007171038923476836
leaf_weight=70.095936044119298 116.31303889025003 5.6273886859416953 9.1435237908735854 40.168459091335535 11.664950726553796 24.035572322551161 52.802652340382338
leaf_count=107 291 6 53 38 72 71 162
internal_value=0 0.0207858 -0.0783674 -0.00808135 -0.0314102 0.0363447 0.0240316
internal_weight=0 108.902 14.7709 220.949 127.978 94.1315 92.9711
internal_count=800 237 59 563 363 178 200
is_linear=0
shrinkage=0.1


Tree=57
num_leaves=7
num_cat=0
split_feature=3 3 4 6 0 4
split_gain=6.27354 19.0132 22.8032 14.4026 14.0767 20.955
threshold=1.3436831943110306 0.70489219437798278 -1.7930058240103495 1.0303560190230414 -0.35769383863404119 1.2033212798399855
decision_type=2 2 2 2 2 2
left_child=1 3 -3 -1 -2 -6
right_child=4 2 -4 -5 5 -7
leaf_value=-0.012170248426722889 0.06758524483956381 0.11065738159545413 -0.14521554449426916 0.039950080189477287 -0.18694142422431265 0.062025553034011208
leaf_weight=180.19097915128805 35.377177741378546 4.3517069816589382 17.446372197009623 75.121471214690246 6.2403589487075788 7.3772747106850147
leaf_count=468 35 1 137 110 41 8
internal_value=0 -0.00448845 -0.0941338 0.0031653 0.0343296 -0.052065
internal_weight=0 277.111 21.7981 255.312 48.9948 13.6176
internal_count=800 716 138 578 84 49
is_linear=0
shrinkage=0.1


Tree=58
num_leaves=6
num_cat=0
split_feature=2 2 1 0 6
split_gain=6.00004 10.1381 9.50808 7.17381 7.68333
threshold=-1.3477795302779803 -1.157086911576269 0.93816059415949415 -0.35769383863404119 -0.41779017777673549
decision_type=2 2 2 2 2
left_child=3 -2 -3 -1 -5
right_child=1 2 -4 4 -6
leaf_value=-0.035413207859401462 -0.10729213207482446 0.0039968392925621259 -0.074004116797405442 0.089128364344956981 -0.0049156287439597567
leaf_weight=11.560288035543634 9.2795786750502867 246.74255841877311 16.684339081868529 23.735415009548888 13.702617884031495
leaf_count=31 39 529 144 21 36
internal_value=0 -0.00456221 -0.000943409 0.0334451 0.0547075
internal_weight=0 272.706 263.427 48.9983 37.438
internal_count=800 712 673 88 57
is_linear=0
shrinkage=0.1


Tree=59
num_leaves=5
num_cat=0
split_feature=5 7 3 7
split_gain=5.96311 8.47594 41.3402 17.1031
threshold=1.0000000180025095e-35 0.53299771922273498 0.10287788421604742 0.66540111744602159
decision_type=2 2 2 2
left_child=1 2 -1 -3
right_child=-2 3 -4 -5
leaf_value=-0.091213732018901927 0.057876290214275483 0.074982420148476642 0.017660967289365323 -0.0044877111528317326
leaf_weight=51.981641882215627 17.5054996535182 36.082374203950167 105.97707877540961 108.55705006746575
leaf_count=260 21 30 255 234
internal_value=0 -0.00215273 -0.0181679 0.0153373
internal_weight=0 302.598 157.959 144.639
internal_count=800 779 515 264
is_linear=0
shrinkage=0.1


Tree=60
num_leaves=8
num_cat=0
split_feature=3 3 1 7 1 6 7
split_gain=6.71471 26.1555 30.0344 23.3166 12.5033 5.01489 0.11586
threshold=-1.2993614632978396 -0.74609523046743198 -1.416135404468138 0.22637932333722918 -0.29274255419525808 0.88554139934306353 -0.55584601616613483
decision_type=2 2 2 2 2 2 2
left_child=3 2 -2 6 -3 -5 -1
right_child=1 4 -4 5 -6 -7 -8
leaf_value=-0.16792443617223471 0.058821910634417877 -0.026767347430595598 -0.18373818788695559 0.024433095351078571 0.021089560297824266 0.088801023562093129 -0.13970206679952521
leaf_weight=3.2120602233335367 7.5003116913139847 84.056933644693345 15.983303215703925 24.775590976700187 155.74406570894644 23.665108263492584 2.6585815735161304
leaf_count=34 8 233 109 38 348 12 18
internal_value=0 -0.00554901 -0.106268 0.0330693 0.00431438 0.0558793 -0.155144
internal_weight=0 263.285 23.4836 54.3113 239.801 48.4407 5.87064
internal_count=800 698 117 102 581 50 52
is_linear=0
shrinkage=0.1


Tree=61
num_leaves=7
num_cat=0
split_feature=4 7 7 4 0 2
split_gain=6.26029 34.5495 19.3966 16.9713 24.5437 0.6015
threshold=-0.2432082111073908 1.4023305575572087 -0.78058336315039745 -0.28749481748033362 -1.0712975067318788 -0.66867501425602216
decision_type=2 2 2 2 2 2
left_child=3 2 -2 4 -1 -3
right_child=1 5 -4 -5 -6 -7
leaf_value=-0.12065189058673767 -0.13769573625978385 -0.25341537824076582 0.007147576700867621 0.10835592428978102 0.017653554695557308 -0.19647231990762651
leaf_weight=14.294911534525452 9.9031462615821493 3.0824367292225361 139.21542988903821 17.351248905993998 125.29650548356585 4.6587037704884997
leaf_count=62 129 17 280 8 279 25
internal_value=0 -0.0131647 -0.00247164 0.0150841 0.00349033 -0.219146
internal_weight=0 156.86 149.119 156.943 139.591 7.74114
internal_count=800 451 409 349 341 42
is_linear=0
shrinkage=0.1


Tree=62
num_leaves=8
num_cat=0
split_feature=7 3 7 3 1 3 7
split_gain=6.46505 26.7463 13.5844 11.4268 16.7877 7.00575 0.65607
threshold=-0.69521801429591012 0.10287788421604742 -0.78058336315039745 -1.2993614632978396 0.7802129947963603 -1.5341708306280426 -0.77013046329066437
decision_type=2 2 2 2 2 2 2
left_child=1 6 -3 5 -5 -2 -1
right_child=3 2 -4 4 -6 -7 -8
leaf_value=-0.12401484951004507 -0.0049758587467275354 0.0060256447412615939 0.10368863769301917 -0.035587541287951018 0.029857740512509934 0.070521278491201086 -0.19071420215571824
leaf_weight=6.3120026348624378 22.47749743051827 29.498452103463929 27.538278838619593 141.30380178242922 54.240879993420094 27.122188873589039 1.9242971334606389
leaf_count=105 44 111 11 355 133 30 11
internal_value=0 0.0288539 0.053179 -0.00656062 -0.0174341 0.0363076 -0.139598
internal_weight=0 65.273 57.0367 245.144 195.545 49.5997 8.2363
internal_count=800 238 122 562 488 74 116
is_linear=0
shrinkage=0.1


Tree=63
num_leaves=7
num_cat=0
split_feature=2 4 4 4 0 6
split_gain=5.74722 8.87076 40.0655 15.6851 6.91065 7.03479
threshold=-1.3477795302779803 0.10477259312756347 0.39617058333558464 -0.65693990874991581 -0.35769383863404119 -0.41779017777673549
decision_type=2 2 2 2 2 2
left_child=4 3 -3 -2 -1 -6
right_child=1 2 -4 -5 5 -7
leaf_value=-0.035970716087621896 -0.024887732024016358 -0.22111056917246816 -0.0077525589083139671 0.039229096018257345 0.088269424497909532 -0.0034917792184663296
leaf_weight=11.07981087209191 69.343983497004956 9.6803859886713308 96.933159026084468 84.828325081150979 22.623567349510267 13.246635915362274
leaf_count=31 212 59 285 156 21 36
internal_value=0 -0.00494656 -0.0271252 0.0103905 0.03306 0.0543826
internal_weight=0 260.786 106.614 154.172 46.95 35.8702
internal_count=800 712 344 368 88 57
is_linear=0
shrinkage=0.1


Tree=64
num_leaves=7
num_cat=0
split_feature=3 0 2 7 4 2
split_gain=5.61589 15.9853 25.3881 12.3403 11.578 5.43421
threshold=1.3436831943110306 -1.0712975067318788 1.6383378814768699 -0.78058336315039745 -0.63701606159583568 0.42679115150334529
decision_type=2 2 2 2 2 2
left_child=1 2 -1 -3 -2 -6
right_child=4 3 -4 -5 5 -7
leaf_value=-0.1062019333456046 -0.14263492172283529 -0.079708001116906055 0.09175055165322818 0.012046958216934356 -0.0077938157138881638 0.07053434231628293
leaf_weight=30.508739393786527 3.4696335997432461 15.786688915104603 8.2259013429284078 204.97017738549039 12.581665602512656 29.921513520181179
leaf_count=131 23 155 7 423 36 25
internal_value=0 -0.0049112 -0.0641637 0.00548541 0.0330096 0.0473479
internal_weight=0 259.492 38.7346 220.757 45.9728 42.5032
internal_count=800 716 138 578 84 61
is_linear=0
shrinkage=0.1


Tree=65
num_leaves=8
num_cat=0
split_feature=7 3 7 7 4 7 7
split_gain=5.75549 21.4719 12.4653 11.0676 32.9548 10.655 0.35782
threshold=-0.69521801429591012 0.10287788421604742 -0.78058336315039745 -0.30497641953253923 1.1783162742510735 -0.22309537063129628 -0.77013046329066437
decision_type=2 2 2 2 2 2 2
left_child=1 6 -3 4 -2 -5 -1
right_child=3 2 -4 5 -6 -7 -8
leaf_value=-0.12026610879941867 -0.18542656276497954 0.004275765081683037 0.10079408270074026 0.07015173261855126 0.047560333116981546 -0.006107502330331257 -0.17143472378114849
leaf_weight=5.4405023775761947 12.275464155711235 28.210061673889868 25.454914500936866 20.197471829131246 12.011122224852441 197.28635217901319 1.8251213391777117
leaf_count=105 70 111 11 18 20 454 11
internal_value=0 0.0282145 0.0500573 -0.00617521 -0.0702011 0.000974605 -0.13312
internal_weight=0 60.9306 53.665 241.77 24.2866 217.484 7.26562
internal_count=800 238 122 562 90 472 116
is_linear=0
shrinkage=0.1


Tree=66
num_leaves=7
num_cat=0
split_feature=4 7 0 7 4 1
split_gain=6.04866 27.1254 17.8246 15.7039 34.0485 0.372628
threshold=-0.2432082111073908 1.4023305575572087 1.0695134975616343 1.4424000070195191 -0.85756813078825489 -0.54945926053214611
decision_type=2 2 2 2 2 2
left_child=3 2 -2 4 -1 -3
right_child=1 5 -4 -5 -6 -7
leaf_value=-0.077724454178409452 0.0083784622467010916 -0.22666283891625844 -0.1082464209556892 0.073887602110541711 0.036457257762062739 -0.18078967486395758
leaf_weight=39.825196518562734 126.51680078718346 2.816897589713335 14.619319658842867 34.658588536083698 75.865802760235965 4.7680290639400473
leaf_count=178 325 14 84 32 139 28
internal_value=0 -0.0136024 -0.00370191 0.0148408 -0.00284839 -0.197826
internal_weight=0 148.721 141.136 150.35 115.691 7.58493
internal_count=800 451 409 349 317 42
is_linear=0
shrinkage=0.1


Tree=67
num_leaves=7
num_cat=0
split_feature=2 7 4 4 0 6
split_gain=5.75214 7.48144 20.136 13.5953 5.82044 6.14751
threshold=-1.3477795302779803 1.3796826078611202 -0.99553277128431106 -1.2766924215748052 -0.35769383863404119 -0.41779017777673549
decision_type=2 2 2 2 2 2
left_child=4 2 -2 -3 -1 -6
right_child=1 3 -4 -5 5 -7
leaf_value=-0.030344766469532193 -0.10351229497915322 0.087999554359897605 -0.0025671004448673176 -0.019978563323755853 0.086232700056873557 -0.00098035388170512341
leaf_weight=10.880594501853919 22.174945831764489 22.003383137285709 181.49801141343778 24.806588690727949 21.561983579420485 12.928431754524352
leaf_count=31 126 15 512 59 21 36
internal_value=0 -0.00527228 -0.0135575 0.0307774 0.0334245 0.0535416
internal_weight=0 250.483 203.673 46.81 45.371 34.4904
internal_count=800 712 638 74 88 57
is_linear=0
shrinkage=0.1


Tree=68
num_leaves=8
num_cat=0
split_feature=7 3 7 3 1 0 7
split_gain=5.20712 18.3272 11.5367 9.37424 12.6809 5.44458 0.258035
threshold=-0.69521801429591012 0.10287788421604742 -0.78058336315039745 -1.2993614632978396 0.64734948415141724 1.0000000180025095e-35 -0.77013046329066437
decision_type=2 2 2 2 2 2 2
left_child=1 6 -3 5 -5 -2 -1
right_child=3 2 -4 4 -6 -7 -8
leaf_value=-0.11759705964572459 -0.0027463671207230305 0.0035152584417166492 0.098356295245352304 -0.033370512178369498 0.022657467201316131 0.065517188533296897 -0.16244925182079492
leaf_weight=4.8606798236141913 21.722169587388635 27.649202498025261 23.923618288710713 129.88202927261591 58.632139211753383 25.283032581210136 1.7424746090546239
leaf_count=105 48 111 11 342 146 26 11
internal_value=0 0.0274266 0.0475102 -0.00598234 -0.0159446 0.0339711 -0.129433
internal_weight=0 58.176 51.5728 235.519 188.514 47.0052 6.60315
internal_count=800 238 122 562 488 74 116
is_linear=0
shrinkage=0.1


Tree=69
num_leaves=7
num_cat=0
split_feature=4 7 3 4 0 2
split_gain=5.43973 22.2818 16.1063 14.0824 17.2306 0.233082
threshold=-0.2432082111073908 1.4023305575572087 0.51899245159935792 -0.28749481748033362 -1.0712975067318788 -0.66867501425602216
decision_type=2 2 2 2 2 2
left_child=3 2 -2 4 -1 -3
right_child=1 5 -4 -5 -6 -7
leaf_value=-0.10396785887232954 -0.034097698646469714 -0.20377671636531494 0.03454166949570274 0.10435760704056683 0.015925549796928562 -0.16767992957087807
leaf_weight=13.366514075780286 78.041098255373072 3.1054874509572983 60.83510479843244 15.518668258562682 116.14663280802779 4.2192160021513692
leaf_count=62 271 17 138 8 279 25
internal_value=0 -0.0129957 -0.00403003 0.0143382 0.00355185 -0.182984
internal_weight=0 146.201 138.876 145.032 129.513 7.3247
internal_count=800 451 409 349 341 42
is_linear=0
shrinkage=0.1


Tree=70
num_leaves=6
num_cat=0
split_feature=2 2 1 0 6
split_gain=4.89686 7.47723 8.22622 5.32645 5.32851
threshold=-1.3477795302779803 -1.157086911576269 0.93816059415949415 -0.35769383863404119 -0.41779017777673549
decision_type=2 2 2 2 2
left_child=3 -2 -3 -1 -5
right_child=1 2 -4 4 -6
leaf_value=-0.030543926434374202 -0.095725211780401345 0.0032814561284525965 -0.073588539259368799 0.083149620201681373 0.00070726958026461832
leaf_weight=10.501523057813754 8.7408026356715691 221.82589194737375 14.853715479839591 20.238768559298478 12.796873876766766
leaf_count=31 39 529 144 21 36
internal_value=0 -0.00489717 -0.00154281 0.0314935 0.0512143
internal_weight=0 245.42 236.68 43.5372 33.0356
internal_count=800 712 673 88 57
is_linear=0
shrinkage=0.1


Tree=71
num_leaves=5
num_cat=0
split_feature=5 7 3 7
split_gain=4.74751 7.31406 24.1856 14.8215
threshold=1.0000000180025095e-35 0.53299771922273498 0.10287788421604742 0.66540111744602159
decision_type=2 2 2 2
left_child=1 2 -1 -3
right_child=-2 3 -4 -5
leaf_value=-0.079618591665265581 0.053491643697730074 0.071018661255978943 0.010033973837561019 -0.0054026884451699895
leaf_weight=44.281273699598387 15.993612450547515 34.092960342764854 93.896859267028049 99.282850518357009
leaf_count=260 21 30 255 234
internal_value=0 -0.00257265 -0.0186965 0.0141318
internal_weight=0 271.554 138.178 133.376
internal_count=800 779 515 264
is_linear=0
shrinkage=0.1


Tree=72
num_leaves=7
num_cat=0
split_feature=2 4 4 4 0 6
split_gain=4.88326 7.03053 29.6842 9.24094 4.84504 4.59569
threshold=-1.3477795302779803 0.10477259312756347 0.39617058333558464 -0.65693990874991581 -0.35769383863404119 -0.41779017777673549
decision_type=2 2 2 2 2 2
left_child=4 3 -3 -2 -1 -6
right_child=1 2 -4 -5 5 -7
leaf_value=-0.027486544315432578 -0.018689856572028919 -0.1993935737905595 -0.0082785483484729989 0.032549328187251002 0.080946681030841891 0.0045483926570273336
leaf_weight=10.561898656946139 64.451337867882103 8.9222448146902007 91.194945898721926 77.546205542865209 19.683485876186751 13.123391551431267
leaf_count=31 212 59 285 156 21 36
internal_value=0 -0.00501626 -0.0253103 0.00929235 0.0314211 0.0503859
internal_weight=0 242.115 100.117 141.998 43.3688 32.8069
internal_count=800 712 344 368 88 57
is_linear=0
shrinkage=0.1


Tree=73
num_leaves=7
num_cat=0
split_feature=4 7 7 6 7 4
split_gain=4.73633 31.196 25.2552 24.7671 20.1794 17.4351
threshold=-1.2704488564211449 1.1741089106197016 0.81348386545890783 1.0303560190230414 -1.0471323095735927 -0.99553277128431106
decision_type=2 2 2 2 2 2
left_child=1 4 5 -4 -1 -2
right_child=2 -3 3 -5 -6 -7
leaf_value=0.092779322954671062 -0.15595484723286795 0.085800656605077477 -0.1277279849387753 0.019903563565378941 -0.17255850590422853 0.016624468570398558
leaf_weight=4.0560830412432543 6.0455203559249631 31.11534021794796 29.138518339022994 18.628524230793118 9.7705882342997921 184.71262059384026
leaf_count=14 40 26 131 32 73 484
internal_value=0 0.0302621 -0.0051278 -0.0701536 -0.0947211 0.0111551
internal_weight=0 44.942 238.525 47.767 13.8267 190.758
internal_count=800 113 687 163 87 524
is_linear=0
shrinkage=0.1


Tree=74
num_leaves=7
num_cat=0
split_feature=3 3 4 0 6 6
split_gain=4.54484 14.2887 16.7576 10.5444 17.4346 10.0969
threshold=1.3436831943110306 0.70489219437798278 -1.7930058240103495 -0.35769383863404119 -0.85223403681666843 1.0303560190230414
decision_type=2 2 2 2 2 2
left_child=1 5 -3 -2 -5 -1
right_child=3 2 -4 4 -6 -7
leaf_value=-0.011794632648572542 0.062412495238179801 0.10813230847937 -0.13562250046499083 0.057762952201599597 -0.18452874823905219 0.035237518937851237
leaf_weight=153.44701092556352 30.060128480195999 3.4775454998016384 14.92448591114953 6.7878006063401681 5.2800164427608252 64.972945011046249
leaf_count=468 35 1 137 13 36 110
internal_value=0 -0.00493378 -0.0895586 0.0307135 -0.0482466 0.00219593
internal_weight=0 236.822 18.402 42.1279 12.0678 218.42
internal_count=800 716 138 84 49 578
is_linear=0
shrinkage=0.1


Tree=75
num_leaves=8
num_cat=0
split_feature=3 3 1 1 1 1 1
split_gain=4.34125 12.8423 23.241 12.2459 16.7888 9.34933 3.86555
threshold=-1.2993614632978396 -0.74609523046743198 -1.416135404468138 -0.34161254307854877 0.93062340225407358 -0.75891800765069639 -0.80499329994850732
decision_type=2 2 2 2 2 2 2
left_child=3 2 -2 6 -5 -3 -1
right_child=1 5 -4 4 -6 -7 -8
leaf_value=0.025696583549599528 0.063228139608558276 -0.036600618703140735 -0.15908388265361184 -0.18888998644664923 0.052173058365494185 0.013733137062253301 0.09343349330364159
leaf_weight=17.028088175691664 7.2714667413383749 47.824031858704984 13.310517313540911 5.3975305166095477 6.216485207551159 161.60089898714796 16.674892978277057
leaf_count=32 8 163 109 34 27 418 9
internal_value=0 -0.00516867 -0.0805426 0.0286945 -0.0598593 0.00223898 0.0592101
internal_weight=0 230.007 20.582 45.317 11.614 209.425 33.703
internal_count=800 698 117 102 61 581 41
is_linear=0
shrinkage=0.1


Tree=76
num_leaves=7
num_cat=0
split_feature=4 7 7 4 7 7
split_gain=4.24969 26.347 20.573 21.6595 17.3771 10.667
threshold=-1.2704488564211449 1.1741089106197016 0.81348386545890783 1.0766393597436859 -1.0471323095735927 0.53299771922273498
decision_type=2 2 2 2 2 2
left_child=1 4 5 -4 -1 -2
right_child=2 -3 3 -5 -6 -7
leaf_value=0.089911937489778465 -0.0045091369135483684 0.08270742517366729 -0.11963116496623834 0.020630254598685949 -0.16553216865345288 0.049853950461670474
leaf_weight=3.7850107308477154 135.13948489996255 28.852861976251006 28.072555930819362 18.113413969054818 8.9844627545680833 49.246894609648734
leaf_count=14 463 26 121 42 73 61
internal_value=0 0.0297784 -0.00493935 -0.0646228 -0.0898158 0.0100104
internal_weight=0 41.6223 230.572 46.186 12.7695 184.386
internal_count=800 113 687 163 87 524
is_linear=0
shrinkage=0.1


Tree=77
num_leaves=5
num_cat=0
split_feature=5 7 3 7
split_gain=4.27947 5.85704 18.4423 10.1456
threshold=1.0000000180025095e-35 0.53299771922273498 0.10287788421604742 0.66540111744602159
decision_type=2 2 2 2
left_child=1 2 -1 -3
right_child=-2 3 -4 -5
leaf_value=-0.07243630690439927 0.051876881996312733 0.062694835294505272 0.0082268891295387836 -0.003649736934304924
leaf_weight=41.597861375135835 15.215952488593755 30.737511456012726 88.961466127540916 92.159627282526344
leaf_count=260 21 30 255 234
internal_value=0 -0.00272471 -0.0174734 0.0129435
internal_weight=0 253.456 130.559 122.897
internal_count=800 779 515 264
is_linear=0
shrinkage=0.1


Tree=78
num_leaves=7
num_cat=0
split_feature=4 1 4 4 3 3
split_gain=4.32237 8.98669 7.90263 9.17732 6.12978 0.0705588
threshold=1.4383654842874518 1.3162198883775356 1.2033212798399855 -0.2432082111073908 1.3436831943110306 0.2349402796955081
decision_type=2 2 2 2 2 2
left_child=2 5 3 -1 -4 -2
right_child=1 -3 4 -5 -6 -7
leaf_value=0.01321265321885331 -0.13435984541054274 0.062001704323389563 0.0060153513768127715 -0.027731488902506159 0.091667674896668716 -0.15687528414697494
leaf_weight=129.92790484288707 2.7302509330911544 3.3208064342616126 17.015689051972004 94.60340524482308 16.416573669761419 2.8392530493438244
leaf_count=349 28 7 49 339 9 19
internal_value=0 -0.0682034 0.0027152 -0.00403864 0.0480741 -0.145838
internal_weight=0 8.89031 257.964 224.531 33.4323 5.5695
internal_count=800 54 746 688 58 47
is_linear=0
shrinkage=0.1


Tree=79
num_leaves=8
num_cat=0
split_feature=3 1 1 3 1 1 6
split_gain=4.49514 10.3908 12.8196 10.0766 18.6175 7.83281 1.23658
threshold=-1.2993614632978396 -0.34161254307854877 0.93062340225407358 -0.74609523046743198 -1.416135404468138 -1.0415935202391418 1.0303560190230414
decision_type=2 2 2 2 2 2 2
left_child=1 6 -3 4 -2 -5 -1
right_child=3 2 -4 5 -6 -7 -8
leaf_value=0.038983770060261866 0.05796208360392794 -0.17138444637126934 0.047356871382857768 -0.048448919053315269 -0.14956112359919471 0.0088508976765962217 0.077918523821081609
leaf_weight=16.848282862687483 6.7264177892357138 5.0568662099540216 5.6984067290322855 27.608464036136866 12.09900282876333 175.55933314969297 15.813647381961344
leaf_count=30 8 34 27 114 109 467 11
internal_value=0 0.0297618 -0.0554899 -0.00542091 -0.075412 0.00106443 0.0578345
internal_weight=0 43.4172 10.7553 221.993 18.8254 203.168 32.6619
internal_count=800 102 61 698 117 581 41
is_linear=0
shrinkage=0.1


Tree=80
num_leaves=6
num_cat=0
split_feature=2 2 0 2 3
split_gain=4.22775 18.1456 12.7152 11.3226 11.7296
threshold=0.52947185361410665 0.68084122956228466 1.0000000180025095e-35 0.41047638307452722 0.65227053465624285
decision_type=2 2 2 2 2
left_child=3 -2 -3 4 -1
right_child=1 2 -4 -5 -6
leaf_value=0.0093050364615889225 -0.18523141556067618 -0.053609601760099594 0.030165409463393661 0.069956030358459514 -0.071377682002295259
leaf_weight=135.46289334044559 6.0579892590176305 31.378330655745231 42.869528783485293 25.90457928169053 20.783213049871847
leaf_count=344 39 140 103 30 144
internal_value=0 -0.0188172 -0.00523925 0.00872471 -0.00142705
internal_weight=0 80.3058 74.2479 182.151 156.246
internal_count=800 282 243 518 488
is_linear=0
shrinkage=0.1


Tree=81
num_leaves=7
num_cat=0
split_feature=7 7 4 3 3 1
split_gain=4.1345 12.378 18.5822 7.47008 29.3662 10.982
threshold=-0.69521801429591012 -0.78058336315039745 -0.45578593439159937 -0.072966925282644465 0.51899245159935792 -1.3388615684612659
decision_type=2 2 2 2 2 2
left_child=1 2 -1 5 -5 -2
right_child=3 -3 -4 4 -6 -7
leaf_value=0.036150778876776021 0.066878031548221181 0.080211155080788077 -0.13901480023719459 -0.11117945684339425 0.0098625505552319206 -0.0060550806664997295
leaf_weight=19.346591262379665 27.117102958261967 22.987352416152135 8.8158776046184339 28.693540091626346 66.488227185094729 86.514609029516578
leaf_count=65 26 23 150 112 188 236
internal_value=0 0.0257616 -0.0186824 -0.00596084 -0.0266268 0.0113497
internal_weight=0 51.1498 28.1625 208.813 95.1818 113.632
internal_count=800 238 215 562 300 262
is_linear=0
shrinkage=0.1


Tree=82
num_leaves=6
num_cat=0
split_feature=2 2 1 0 6
split_gain=4.16269 6.46876 7.33733 3.88732 4.21113
threshold=-1.3477795302779803 -1.157086911576269 0.93816059415949415 -0.35769383863404119 -0.41779017777673549
decision_type=2 2 2 2 2
left_child=3 -2 -3 -1 -5
right_child=1 2 -4 4 -6
leaf_value=-0.023501267900620602 -0.094669580976572895 0.0028887775366006254 -0.076172443834618422 0.079467150980123191 0.0023227072458894575
leaf_weight=10.065865799202582 7.7812217830796717 197.24530369252898 12.481240190623792 17.61940183583647 11.824981713929448
leaf_count=31 39 529 144 21 36
internal_value=0 -0.00513809 -0.00181631 0.0301458 0.0484856
internal_weight=0 217.508 209.727 39.5102 29.4444
internal_count=800 712 673 88 57
is_linear=0
shrinkage=0.1


Tree=83
num_leaves=8
num_cat=0
split_feature=1 1 2 6 6 7 7
split_gain=4.03562 13.5805 32.907 7.66944 7.63804 21.1927 1.51181
threshold=0.59453139415859058 -0.048412430637277695 1.1104430062004504 -1.5763071352165567 0.74072677966308598 -0.26142267011698445 0.56435641880193443
decision_type=2 2 2 2 2 2 2
left_child=1 3 -3 -1 5 -2 -6
right_child=4 2 -4 -5 6 -7 -8
leaf_value=0.078249123687381461 0.043266023986876151 -0.14542215427777258 0.04620992268435993 -0.0014178762297729504 0.02887857351421871 -0.10337472736932787 0.073518524744049102
leaf_weight=13.319222744554279 28.357176874822471 20.670615990995429 15.81828203005716 130.28753815847449 12.234588447259737 15.105219275224952 19.969965385273099
leaf_count=15 88 121 30 370 48 108 20
internal_value=0 -0.00787092 -0.0623478 0.00597107 0.0196504 -0.00769851 0.0565597
internal_weight=0 180.096 36.4889 143.607 75.6669 43.4624 32.2046
internal_count=800 536 151 385 264 196 68
is_linear=0
shrinkage=0.1


Tree=84
num_leaves=7
num_cat=0
split_feature=2 2 1 2 1 1
split_gain=3.85719 11.2187 24.7243 9.13952 6.51174 11.0046
threshold=-0.58298427007159936 0.18815262368535787 0.73863292520205714 0.52947185361410665 -1.4634476676228998 -1.0415935202391418
decision_type=2 2 2 2 2 2
left_child=4 2 -2 -3 -1 -6
right_child=1 3 -4 -5 5 -7
leaf_value=0.078057480027922732 -0.14499539965285854 0.040100947051590868 0.04356234456150946 -0.017165203037596569 -0.10339639590202881 0.016585546500772763
leaf_weight=14.203018341446294 16.662298365728933 43.399125508847646 11.93513545845053 77.883244175231084 8.4530702927149814 79.908306455763523
leaf_count=21 131 74 51 282 33 208
internal_value=0 -0.00995845 -0.0663008 0.00332665 0.0152095 0.0051075
internal_weight=0 149.88 28.5974 121.282 102.564 88.3614
internal_count=800 538 182 356 262 241
is_linear=0
shrinkage=0.1


Tree=85
num_leaves=7
num_cat=0
split_feature=7 1 1 7 6 4
split_gain=3.94446 15.9035 16.8342 14.0333 36.2091 18.2602
threshold=1.3796826078611202 -0.73297198903877869 0.86303078174040282 0.81348386545890783 1.4647998780629743 -0.99553277128431106
decision_type=2 2 2 2 2 2
left_child=3 -2 -3 5 -5 -1
right_child=1 2 -4 4 -6 -7
leaf_value=-0.10066274449023367 0.07057845987335272 -0.18060193027630558 0.029893792814979999 -0.17371809464357063 0.07351945275587958 0.013789182932241538
leaf_weight=15.233481887145897 29.34585864841938 6.301067477092146 9.5692397858947498 15.016121014254168 9.7828098721802235 164.15393391341786
leaf_count=116 31 39 22 99 9 484
internal_value=0 0.0269652 -0.0536804 -0.00567737 -0.0761866 0.00406999
internal_weight=0 45.2162 15.8703 204.186 24.7989 179.387
internal_count=800 92 61 708 108 600
is_linear=0
shrinkage=0.1


Tree=86
num_leaves=7
num_cat=0
split_feature=4 7 4 4 7 7
split_gain=3.90545 17.7563 15.1768 15.0467 11.7669 11.2777
threshold=-1.2704488564211449 1.1741089106197016 -1.8070625432394263 -0.85756813078825489 -0.68476511443617694 0.81348386545890783
decision_type=2 2 2 2 2 2
left_child=1 2 -1 4 -2 -5
right_child=3 -3 -4 5 -6 -7
leaf_value=0.094744074012422463 0.016885387082734449 0.078622492236345098 -0.15385865586807129 0.014769803602404347 -0.15819387133409635 -0.046407693647846068
leaf_weight=3.6315323039889318 5.9583287267014411 24.431476937606931 7.5840776807162911 155.30559053595061 10.791391105158253 37.386217098450288
leaf_count=3 21 26 84 457 69 140
internal_value=0 0.0308035 -0.0733629 -0.00500234 -0.0959134 0.0029001
internal_weight=0 35.6471 11.2156 209.442 16.7497 192.692
internal_count=800 113 87 687 90 597
is_linear=0
shrinkage=0.1


Tree=87
num_leaves=7
num_cat=0
split_feature=4 0 6 3 4 7
split_gain=3.64022 15.2997 19.2561 17.8707 9.17751 11.0754
threshold=-0.2432082111073908 1.0695134975616343 -0.9970486564966462 -1.7299652604773101 -0.28749481748033362 1.4424000070195191
decision_type=2 2 2 2 2 2
left_child=4 2 -2 -3 5 -1
right_child=1 3 -4 -5 -6 -7
leaf_value=-0.014573990217330024 -0.12117441432769208 0.091591838270615844 0.014758937440458378 -0.17550118674322976 0.09710346450659324 0.061992125684120818
leaf_weight=79.802562061697245 11.632165242102927 3.2978097051382056 100.10022209578892 10.420686017285332 11.655362702440469 24.752190921455622
leaf_count=309 77 2 279 93 8 32
internal_value=0 -0.0116296 0.000607273 -0.111294 0.012935 0.0035522
internal_weight=0 125.451 111.732 13.7185 116.21 104.555
internal_count=800 451 356 95 349 341
is_linear=0
shrinkage=0.1


Tree=88
num_leaves=7
num_cat=0
split_feature=2 7 2 2 6 7
split_gain=3.36952 12.7918 8.24166 16.1844 9.50257 0.169627
threshold=1.2498116387684888 0.63055811791357763 1.0332925524027561 0.52947185361410665 -0.70741941713669088 0.35529842160727138
decision_type=2 2 2 2 2 2
left_child=2 5 3 -1 -4 -2
right_child=1 -3 4 -5 -6 -7
leaf_value=0.0070599282808854859 -0.13080492675337854 0.021496168852575728 0.10288955604222483 -0.082412099889843007 -0.0092808595920925423 -0.16416154574092118
leaf_weight=164.00280185297015 5.7182511581340831 13.356178913265465 16.681384327355776 23.059858149616048 13.800456800265236 2.0787034211680293
leaf_count=518 67 29 12 123 39 12
internal_value=0 -0.0379193 0.00388747 -0.0039696 0.0521051 -0.139698
internal_weight=0 21.1531 217.545 187.063 30.4818 7.79695
internal_count=800 108 692 641 51 79
is_linear=0
shrinkage=0.1


Tree=89
num_leaves=8
num_cat=0
split_feature=7 3 7 1 7 1 7
split_gain=3.29774 10.9756 9.58793 6.39154 22.7555 6.20489 0.143793
threshold=-0.69521801429591012 0.10287788421604742 -0.78058336315039745 0.7802129947963603 -0.30497641953253923 0.89125381593245179 -0.77013046329066437
decision_type=2 2 2 2 2 2 2
left_child=1 6 -3 4 -2 -5 -1
right_child=3 2 -4 5 -6 -7 -8
leaf_value=-0.1112546715783527 -0.16803755253353278 -0.0034754029195406353 0.092057587850290487 0.061660886339475932 -0.0057428446758599518 -0.010827721118711048 -0.14923939071505687
leaf_weight=3.0893171707866713 9.2391047291457635 23.215888494916726 19.188697027042508 24.116377990692854 133.06830739509314 23.137881124857813 1.4711930830962945
leaf_count=105 60 111 11 25 345 132 11
internal_value=0 0.0239011 0.0397547 -0.00569841 -0.0162796 0.0261671 -0.123508
internal_weight=0 46.9651 42.4046 189.562 142.307 47.2543 4.56051
internal_count=800 238 122 562 405 157 116
is_linear=0
shrinkage=0.1


Tree=90
num_leaves=8
num_cat=0
split_feature=3 3 1 1 7 6 7
split_gain=3.34283 8.64682 6.86058 9.05149 5.29184 1.50401 0.0873223
threshold=-1.2993614632978396 -1.1224030516078878 -0.34161254307854877 0.93062340225407358 -0.22309537063129628 1.0303560190230414 0.4772489199708248
decision_type=2 2 2 2 2 2 2
left_child=2 6 5 -4 -3 -1 -2
right_child=1 4 3 -5 -6 -7 -8
leaf_value=0.028353145974372013 -0.13321612729868851 0.018532701541942344 -0.15167111372854211 0.046017820713236901 -0.015437522021655395 0.074319192101270179 -0.16226489173938149
leaf_weight=13.98218731256202 2.0274268692301112 75.902739768585889 4.3822667193599028 4.9123187087243423 115.84845555829816 14.500522403046487 2.1136998245492578
leaf_count=30 29 286 34 27 370 11 13
internal_value=0 -0.00507828 0.0274106 -0.0471897 -0.00199076 0.0517544 -0.148043
internal_weight=0 195.892 37.7773 9.29459 191.751 28.4827 4.14113
internal_count=800 698 102 61 656 41 42
is_linear=0
shrinkage=0.1


Tree=91
num_leaves=7
num_cat=0
split_feature=4 7 7 4 7 7
split_gain=3.40037 14.305 13.1206 12.3922 9.43829 9.2035
threshold=-1.2704488564211449 1.1741089106197016 -1.0471323095735927 -0.85756813078825489 0.81348386545890783 -0.68476511443617694
decision_type=2 2 2 2 2 2
left_child=1 2 -1 5 -5 -2
right_child=3 -3 -4 4 -6 -7
leaf_value=0.092485998104261558 0.012138164416484638 0.074193095669181128 -0.14929321480516486 0.013633481890487834 -0.04340808631107318 -0.14933112696656026
leaf_weight=3.3631673704367113 5.5174276111647478 22.637575158849359 6.7477271588286385 147.91996872577874 36.083615851122886 9.7997704399749619
leaf_count=14 21 26 73 457 140 69
internal_value=0 0.030023 -0.0688707 -0.0047466 0.00244747 -0.0911681
internal_weight=0 32.7485 10.1109 199.321 184.004 15.3172
internal_count=800 113 87 687 597 90
is_linear=0
shrinkage=0.1


Tree=92
num_leaves=7
num_cat=0
split_feature=4 0 6 3 4 0
split_gain=3.35103 12.6647 15.5185 13.9813 7.7907 8.81177
threshold=-0.2432082111073908 1.0695134975616343 -0.9970486564966462 -1.7025767854886102 -0.28749481748033362 -1.0712975067318788
decision_type=2 2 2 2 2 2
left_child=4 2 -2 -3 5 -1
right_child=1 3 -4 -5 -6 -7
leaf_value=-0.080853991685628582 -0.11213264752566804 0.075813818344916906 0.01262199502245818 -0.16810410969370759 0.094008913930079319 0.014549147756931537
leaf_weight=10.882314352085812 11.125231746525968 3.1396920531988135 96.101276872068411 9.3426653034257452 10.660789998248218 87.729212653706782
leaf_count=62 77 3 279 92 8 279
internal_value=0 -0.0114195 -0.000321859 -0.106751 0.0128003 0.0040209
internal_weight=0 119.709 107.227 12.4824 109.272 98.6115
internal_count=800 451 356 95 349 341
is_linear=0
shrinkage=0.1


Tree=93
num_leaves=7
num_cat=0
split_feature=3 3 4 0 6 3
split_gain=3.26356 10.8553 11.2369 7.93225 11.001 7.84641
threshold=1.3436831943110306 0.70489219437798278 -1.7930058240103495 -0.35769383863404119 -0.85223403681666843 0.51899245159935792
decision_type=2 2 2 2 2 2
left_child=1 5 -3 -2 -5 -1
right_child=3 2 -4 4 -6 -7
leaf_value=-0.0085427827351282262 0.057412157059062413 0.10543272235179678 -0.13044870774218156 0.048230026755376437 -0.16755973818216641 0.044865263905099623
leaf_weight=143.3523486260674 25.410979393869638 2.4436366558074942 11.637527840211986 5.2135511795058829 4.3201585225760937 34.039827393367887
leaf_count=524 35 1 137 13 36 54
internal_value=0 -0.0050027 -0.089514 0.0282293 -0.0495542 0.0017057
internal_weight=0 191.473 14.0812 34.9447 9.53371 177.392
internal_count=800 716 138 84 49 578
is_linear=0
shrinkage=0.1


Tree=94
num_leaves=5
num_cat=0
split_feature=5 7 3 7
split_gain=3.04071 4.74568 11.9578 7.69954
threshold=1.0000000180025095e-35 0.53299771922273498 0.10287788421604742 0.66540111744602159
decision_type=2 2 2 2
left_child=1 2 -1 -3
right_child=-2 3 -4 -5
leaf_value=-0.066448235502735348 0.047658807375122354 0.058763675828233566 0.0050092647847971355 -0.0036888106690735711
leaf_weight=33.990596509262105 12.684431115165351 26.828185558319092 75.292372233758215 74.726016918430105
leaf_count=260 21 30 255 234
internal_value=0 -0.0027537 -0.0172164 0.0128096
internal_weight=0 210.837 109.283 101.554
internal_count=800 779 515 264
is_linear=0
shrinkage=0.1


Tree=95
num_leaves=8
num_cat=0
split_feature=3 4 4 6 1 4 4
split_gain=3.27941 6.11357 18.6683 6.73441 5.6279 7.42268 0.931329
threshold=-1.2993614632978396 1.1783162742510735 0.972985798769746 -0.1281609384167802 -0.34161254307854877 1.0126449200708374 -0.70957277187681
decision_type=2 2 2 2 2 2 2
left_child=4 2 -2 -3 6 -6 -1
right_child=1 3 -4 -5 5 -7 -8
leaf_value=0.074589621873865114 -0.0066024852950886202 0.060927428838611755 -0.18045003019007877 -0.032633612697617942 -0.13944727998321915 0.048486906169769091 0.036085541393488865
leaf_weight=9.7833037339150923 143.92752163723344 24.758713704010006 6.4538185914279884 11.161410022221387 4.1242518124636245 4.2852097586728632 17.552173260832205
leaf_count=9 543 50 50 55 46 15 32
internal_value=0 -0.00520996 -0.0140634 0.0318553 0.0278577 -0.0436816 0.0498661
internal_weight=0 186.301 150.381 35.9201 35.7449 8.40946 27.3355
internal_count=800 698 593 105 102 61 41
is_linear=0
shrinkage=0.1


Tree=96
num_leaves=8
num_cat=0
split_feature=4 7 7 6 0 3 6
split_gain=3.17228 11.2958 11.7515 7.10928 14.2422 7.33899 0.124845
threshold=-0.2432082111073908 1.4023305575572087 -0.78058336315039745 -0.41779017777673549 -1.0712975067318788 -0.33663636939534219 0.45109754030313054
decision_type=2 2 2 2 2 2 2
left_child=3 2 -2 5 -5 -1 -3
right_child=1 6 -4 4 -6 -7 -8
leaf_value=-0.05059996792624543 -0.13518412263410196 -0.1362971156956391 0.0038945274744136785 -0.16517781366311279 0.0051627293420002211 0.059019074866984128 -0.16639913327790878
leaf_weight=7.2363800923340014 6.459002495816093 2.8026198493316761 102.2840212280862 5.3997077153762794 53.947731730761006 39.150849041296169 2.7100484538823366
leaf_count=49 129 23 280 43 181 76 19
internal_value=0 -0.0114458 -0.00436632 0.012589 -0.0103357 0.0419186 -0.151095
internal_weight=0 114.256 108.743 105.735 59.3474 46.3872 5.51267
internal_count=800 451 409 349 224 125 42
is_linear=0
shrinkage=0.1


Tree=97
num_leaves=7
num_cat=0
split_feature=3 4 4 7 6 0
split_gain=2.96784 5.28756 15.5259 6.58846 4.98774 14.7849
threshold=-1.2993614632978396 1.1783162742510735 0.972985798769746 -0.2927813696961839 0.88554139934306353 1.0000000180025095e-35
decision_type=2 2 2 2 2 2
left_child=4 2 -2 -3 5 -1
right_child=1 3 -4 -5 -6 -7
leaf_value=-0.15970860056395095 -0.0065755402355229106 0.066540009473808254 -0.17031006383237668 -0.021633254649607841 0.063535544546509004 0.048292813400807842
leaf_weight=4.834073476376946 141.84141091139463 20.45055074658012 6.0378392551792777 14.471002489794044 17.922178126871586 11.660096145351416
leaf_count=49 543 45 50 60 22 31
internal_value=0 -0.00499595 -0.0132607 0.0300022 0.0270148 -0.0126678
internal_weight=0 182.801 147.879 34.9216 34.4163 16.4942
internal_count=800 698 593 105 102 80
is_linear=0
shrinkage=0.1


Tree=98
num_leaves=7
num_cat=0
split_feature=7 1 1 7 6 4
split_gain=2.80508 11.138 11.5243 8.95942 26.7231 10.483
threshold=1.3796826078611202 -0.73297198903877869 0.86303078174040282 0.81348386545890783 1.4647998780629743 -0.99553277128431106
decision_type=2 2 2 2 2 2
left_child=3 -2 -3 5 -5 -1
right_child=1 2 -4 4 -6 -7
leaf_value=-0.086545178027478797 0.065599901582103146 -0.16062101176581983 0.028513898194387061 -0.15847424896078255 0.070365827129361749 0.010577802963982544
leaf_weight=12.040217149944509 24.065389949828386 5.4231877932324988 7.9357707519084215 12.651145556010306 8.5528627205640078 144.34500078040583
leaf_count=116 31 39 22 99 9 484
internal_value=0 0.024954 -0.0482671 -0.00517048 -0.0661692 0.00310023
internal_weight=0 37.4243 13.359 177.589 21.204 156.385
internal_count=800 92 61 708 108 600
is_linear=0
shrinkage=0.1


Tree=99
num_leaves=7
num_cat=0
split_feature=4 3 3 1 4 4
split_gain=2.7675 10.3269 25.9515 7.86669 6.61993 7.67398
threshold=-0.2432082111073908 0.51899245159935792 0.18578157625466049 -0.75891800765069639 -0.28749481748033362 -0.45578593439159937
decision_type=2 2 2 2 2 2
left_child=4 2 -2 -3 5 -1
right_child=1 3 -4 -5 -6 -7
leaf_value=0.013130848019746032 -0.010801174247043471 -0.065351296948052487 -0.1921682580506949 0.043153813306026877 0.091371464844878417 -0.085308120854650712
leaf_weight=83.051370042434428 53.899933152017184 8.0646013489458692 9.242210741620509 38.967684553703293 9.514884584117679 8.754031107760964
leaf_count=290 237 41 63 110 8 51
internal_value=0 -0.0109251 -0.0373481 0.0245485 0.0119733 0.00374428
internal_weight=0 110.174 63.1421 47.0323 101.32 91.8054
internal_count=800 451 300 151 349 341
is_linear=0
shrinkage=0.1


end of trees

feature_importances:
Column_3=114
Column_7=113
Column_4=98
Column_2=92
Column_1=72
Column_6=36
Column_0=35
Column_5=9

parameters:
[boosting: gbdt]
[objective: binary]
[metric: binary_logloss]
[tree_learner: serial]
[device_type: cpu]
[data: ]
[valid: ]
[num_iterations: 100]
[learning_rate: 0.1]
[num_leaves: 8]
[num_threads: 4]
[deterministic: 0]
[force_col_wise: 0]
[force_row_wise: 0]
[histogram_pool_size: -1]
[max_depth: 3]
[min_data_in_leaf: 20]
[min_sum_hessian_in_leaf: 0.001]
[bagging_fraction: 1]
[pos_bagging_fraction: 1]
[neg_bagging_fraction: 1]
[bagging_freq: 0]
[bagging_seed: 400]
[feature_fraction: 1]
[feature_fraction_bynode: 1]
[feature_fraction_seed: 30056]
[extra_trees: 0]
[extra_seed: 12879]
[early_stopping_round: 0]
[first_metric_only: 0]
[max_delta_step: 0]
[lambda_l1: 0]
[lambda_l2: 0]
[linear_lambda: 0]
[min_gain_to_split: 0]
[drop_rate: 0.1]
[max_drop: 50]
[skip_drop: 0.5]
[xgboost_dart_mode: 0]
[uniform_drop: 0]
[drop_seed: 17869]
[top_rate: 0.2]
[other_rate: 0.1]
[min_data_per_group: 100]
[max_cat_threshold: 32]
[cat_l2: 10]
[cat_smooth: 10]
[max_cat_to_onehot: 4]
[top_k: 20]
[monotone_constraints: ]
[monotone_constraints_method: basic]
[monotone_penalty: 0]
[feature_contri: ]
[forcedsplits_filename: ]
[refit_decay_rate: 0.9]
[cegb_tradeoff: 1]
[cegb_penalty_split: 0]
[cegb_penalty_feature_lazy: ]
[cegb_penalty_feature_coupled: ]
[path_smooth: 0]
[interaction_constraints: ]
[verbosity: 1]
[saved_feature_importance_type: 0]
[linear_tree: 0]
[max_bin: 255]
[max_bin_by_feature: ]
[min_data_in_bin: 3]
[bin_construct_sample_cnt: 200000]
[data_random_seed: 175]
[is_enable_sparse: 1]
[enable_bundle: 1]
[use_missing: 1]
[zero_as_missing: 0]
[feature_pre_filter: 1]
[pre_partition: 0]
[two_round: 0]
[header: 0]
[label_column: ]
[weight_column: ]
[group_column: ]
[ignore_column: ]
[categorical_feature: ]
[forcedbins_filename: ]
[precise_float_parser: 0]
[parser_config_file: ]
[objective_seed: 16083]
[num_class: 1]
[is_unbalance: 0]
[scale_pos_weight: 50]
[sigmoid: 1]
[boost_from_average: 1]
[reg_sqrt: 0]
[alpha: 0.9]
[fair_c: 1]
[poisson_max_delta_step: 0.7]
[tweedie_variance_power: 1.5]
[lambdarank_truncation_level: 30]
[lambdarank_norm: 1]
[label_gain: ]
[lambdarank_position_bias_regularization: 0]
[eval_at: ]
[multi_error_top_k: 1]
[auc_mu_weights: ]
[num_machines: 1]
[local_listen_port: 12400]
[time_out: 120]
[machine_list_filename: ]
[machines: ]
[gpu_platform_id: -1]
[gpu_device_id: -1]
[gpu_use_dp: 0]
[num_gpu: 1]

end of parameters

pandas_categorical:null
